<?xml version="1.0"?>
<opencv_storage>
<opencv_ml_ann_mlp>
  <format>3</format>
  <layer_sizes>
    784 64 10</layer_sizes>
  <activation_function>SIGMOID_SYM</activation_function>
  <f_param1>6.6666666666666663e-01</f_param1>
  <f_param2>1.7159000000000000e+00</f_param2>
  <min_val>-9.4999999999999996e-01</min_val>
  <max_val>9.4999999999999996e-01</max_val>
  <min_val1>-9.7999999999999998e-01</min_val1>
  <max_val1>9.7999999999999998e-01</max_val1>
  <training_params>
    <train_method>BACKPROP</train_method>
    <dw_scale>1.0000000000000001e-01</dw_scale>
    <moment_scale>0.</moment_scale>
    <term_criteria>
      <epsilon>1.0000000000000000e-04</epsilon>
      <iterations>100</iterations></term_criteria></training_params>
  <input_scale>
    1. 0. 1. 0. 1. 0. 1. 0. 1. 0. 1. 0. 1. 0. 1. 0. 1. 0. 1. 0. 1. 0. 1.
    0. 5.3648089601031472e+02 -4.4180780035878615e-03
    1.8733774383330552e+02 -5.7548196110001025e-03
    2.8917827912884053e+02 -4.0825169257547667e-03
    6.9402784549102953e+03 -4.0825169257547667e-03 1. 0. 1. 0. 1. 0. 1.
    0. 1. 0. 1. 0. 1. 0. 1. 0. 1. 0. 1. 0. 1. 0. 1. 0. 1. 0. 1. 0. 1. 0.
    1. 0. 3.9039065793799291e+03 -4.0825169257547667e-03
    1.3101496181268840e+03 -4.7096882957418460e-03
    2.4170555661572348e+02 -8.7993464003812156e-03
    1.2171280219459351e+02 -1.1590559163787754e-02
    8.6089359193337074e+01 -1.4758979878597188e-02
    7.6718219273647634e+01 -1.9284854722948250e-02
    5.2369380879591176e+01 -2.4671797567120807e-02
    4.6120563044168556e+01 -2.9071027211066414e-02
    4.4786878460768051e+01 -3.0592658412926032e-02
    4.4787656333604353e+01 -3.1164012851993019e-02
    4.3052375530710435e+01 -3.1962872072097276e-02
    4.4224211811248360e+01 -3.0202535635168715e-02
    4.2710977315808599e+01 -3.1310217614785599e-02
    4.7105537951617727e+01 -2.8383396132158473e-02
    5.8885235955553128e+01 -2.3119190743491249e-02
    6.8612394577963698e+01 -1.9166626047137380e-02
    7.9472344018885167e+01 -1.6772300826249399e-02
    1.3123581002788268e+02 -1.0996360185098215e-02
    2.1052953089211195e+02 -8.3248607972167977e-03
    3.1615382190904126e+02 -4.3806935526371849e-03 1. 0. 1. 0. 1. 0. 1.
    0. 1. 0. 1. 0. 9.7597664484498227e+02 -4.0825169257547667e-03
    1.9654474500613208e+03 -5.3953459858502402e-03
    3.1269281164948018e+02 -8.5224122716123403e-03
    5.5735882228722335e+02 -1.1985036320239759e-02
    9.5576151789615537e+01 -1.7653477825358348e-02
    5.1056930164178773e+01 -2.7710899055215305e-02
    3.5733230559056175e+01 -3.7020094475901343e-02
    2.6249780508148806e+01 -5.2151280432312361e-02
    1.9721078691808820e+01 -6.7036200977379556e-02
    1.6409286549080885e+01 -8.3017048703456608e-02
    1.3549186342660247e+01 -9.9379298193932500e-02
    1.1609696744810909e+01 -1.1518412819176357e-01
    1.0285110111076740e+01 -1.2913325665555714e-01
    9.7338727394767943e+00 -1.3839467778572026e-01
    9.5151757314514303e+00 -1.3888363126273645e-01
    9.9099722698638910e+00 -1.3184343867851445e-01
    1.0956210590093917e+01 -1.2042952276999193e-01
    1.2709041411674468e+01 -1.0189079519288578e-01
    1.6674130696362294e+01 -7.8604904641684514e-02
    2.2944006927855842e+01 -5.6995613250721576e-02
    3.4145332390673552e+01 -3.9657684022977056e-02
    6.4380972289955125e+01 -2.3728386197652593e-02
    1.0201216064042070e+02 -1.4088346403922682e-02
    2.3129702595552419e+02 -7.8308406660807534e-03 1. 0. 1. 0. 1. 0. 1.
    0. 4.2338233222320622e+02 -5.3683775164463359e-03
    3.8666742348304632e+02 -8.8706059090845110e-03
    2.9859014774801244e+02 -1.4070817030805434e-02
    8.0947487658522121e+01 -2.2146809867850625e-02
    4.2299103006120951e+01 -3.5180136973244715e-02
    2.5693166624632646e+01 -5.5023680434794296e-02
    1.7471606281948510e+01 -7.9096132486633566e-02
    1.2387967826839686e+01 -1.0764901291939635e-01
    9.6104002962409627e+00 -1.3716993626751239e-01
    7.8359633636656172e+00 -1.6710576206380734e-01
    6.7479269336820620e+00 -1.9600875625047062e-01
    5.9035586020770170e+00 -2.2449111454187792e-01
    5.3359280153182747e+00 -2.4865599235127445e-01
    5.0493488363958932e+00 -2.6211797157803446e-01
    5.1020316277747826e+00 -2.6259690263220598e-01
    5.3500796218594200e+00 -2.4785590409543781e-01
    5.9302663542669949e+00 -2.2194700403229387e-01
    6.9559318179997014e+00 -1.8721140566259786e-01
    8.9774380797173094e+00 -1.4764013220829042e-01
    1.2125871950158762e+01 -1.0816436426260549e-01
    1.8460389166583141e+01 -7.6812111961473944e-02
    2.9061171573651848e+01 -4.7075299817748793e-02
    4.7515691261457995e+01 -3.0201967712070305e-02
    1.3997060017124366e+02 -1.5241243557476001e-02
    4.8119589386801294e+02 -5.2837196625275355e-03 1. 0. 1. 0.
    1.6437501695049459e+03 -4.0825169257547658e-03
    3.7948999124808012e+02 -7.7634229880172686e-03
    2.6465364956065173e+02 -1.4893254778498660e-02
    7.5547100132842345e+01 -2.3962750593807168e-02
    3.1293045517732885e+01 -5.0340898280189013e-02
    1.9253319487654689e+01 -7.8767470638240050e-02
    1.2245896133246163e+01 -1.1618154082631563e-01
    8.6097739388774102e+00 -1.6124756268211621e-01
    6.4388293629673141e+00 -2.1196163624500775e-01
    5.1132841711993935e+00 -2.6689873233519090e-01
    4.2638297890357677e+00 -3.2567801164512661e-01
    3.6806139544727343e+00 -3.9024154964529489e-01
    3.2738534965497990e+00 -4.5207637767453540e-01
    3.0435958433804271e+00 -4.9939798584797257e-01
    2.9495370808173877e+00 -5.2342832611087087e-01
    2.9769122738174585e+00 -5.1761889653133042e-01
    3.1329988028508930e+00 -4.8090242105578862e-01
    3.4437108985095328e+00 -4.2307969572253151e-01
    3.9682893262328145e+00 -3.5674039635689764e-01
    4.8775705226929116e+00 -2.8368364956985076e-01
    6.3838811405214022e+00 -2.1683666225361695e-01
    8.8883053626105912e+00 -1.5852438094871815e-01
    1.2980744765268748e+01 -1.0878458180989357e-01
    2.0958680168932609e+01 -7.0922531196939281e-02
    4.7812936951348171e+01 -3.8953481956109211e-02
    1.2257531590987458e+02 -1.4252385185312388e-02
    7.2367721439515208e+02 -5.7704980649312702e-03 1. 0. 1. 0.
    2.9417871540563647e+02 -1.1901740571867412e-02
    8.8757532139417663e+01 -2.2050156045995403e-02
    3.3425595655991053e+01 -5.1838075220759387e-02
    1.5797611144504913e+01 -9.0659703953055240e-02
    9.9267732325844857e+00 -1.3966710617956615e-01
    6.9531288054011107e+00 -1.9708212142090495e-01
    5.1791888093859644e+00 -2.6438472877765856e-01
    4.0949478367254004e+00 -3.4073044304775724e-01
    3.4204840343450540e+00 -4.2253575084186085e-01
    2.9730831654946930e+00 -5.1540865072114705e-01
    2.6668716473145091e+00 -6.1603532954457296e-01
    2.4737869050523331e+00 -7.1598329994436671e-01
    2.3794854760962667e+00 -7.9412046946133519e-01
    2.3503097988593207e+00 -8.3504925635580662e-01
    2.3634512455510617e+00 -8.2418581501601362e-01
    2.4260536770784915e+00 -7.6283928686585112e-01
    2.5775767509617884e+00 -6.6655950118818852e-01
    2.8486228331443502e+00 -5.5625040028500872e-01
    3.3231497757785200e+00 -4.4764565589238675e-01
    4.1210727967563585e+00 -3.4762461555368174e-01
    5.3682591316137893e+00 -2.6084090780568092e-01
    7.3094126115109832e+00 -1.9030605405482484e-01
    1.1168926550406491e+01 -1.3108013024346532e-01
    2.2622369636117178e+01 -7.4846037679501431e-02
    5.7487757691238450e+01 -3.1930129200937823e-02
    4.4537747239005859e+02 -8.2089183482417123e-03 1. 0.
    7.7475761849239916e+03 -5.5701529617163117e-03
    1.4522877585739832e+02 -1.5661927109954732e-02
    4.1878262883200854e+01 -3.6365660799255094e-02
    1.7999909142227235e+01 -7.9024308297724138e-02
    1.0331230932898812e+01 -1.3328908680027177e-01
    6.8290999672482995e+00 -1.9915441154090080e-01
    4.9272088983420650e+00 -2.7542969256552524e-01
    3.8384135058740849e+00 -3.6333594751041953e-01
    3.1668069885399324e+00 -4.6308053479389188e-01
    2.7597555957407991e+00 -5.7484519127083211e-01
    2.5128741893339548e+00 -6.9880387586332815e-01
    2.3671697816662784e+00 -8.2877368728986567e-01
    2.2969091330304900e+00 -9.5689205221335294e-01
    2.2733047872684260e+00 -1.0564726445619259e+00
    2.2700029602873086e+00 -1.1047183133689411e+00
    2.2700798035254794e+00 -1.0835076143940101e+00
    2.2737221268619314e+00 -9.9895165037964051e-01
    2.3209344948971462e+00 -8.7474762749777191e-01
    2.4580832860573358e+00 -7.2455973761129977e-01
    2.7398668240292201e+00 -5.8060590051791761e-01
    3.2651479905893215e+00 -4.5215876562125606e-01
    4.1219458100688380e+00 -3.3932343243838997e-01
    5.5475302010118375e+00 -2.4893037380193136e-01
    8.1851398042212065e+00 -1.7293970228860725e-01
    1.4306326443527240e+01 -1.0410424081705541e-01
    3.3058742626084744e+01 -4.8317622140315382e-02
    1.2378034910308999e+02 -1.4708018335971802e-02
    1.3289895241960487e+03 -4.0825169257547667e-03
    1.7097503105993474e+02 -1.3231009297387382e-02
    6.2156417289230625e+01 -2.6243821063207492e-02
    2.5326014435452908e+01 -5.9158591101620160e-02
    1.2461614420419414e+01 -1.1300485338296566e-01
    7.6748826564449653e+00 -1.7844152583258199e-01
    5.2903635826036215e+00 -2.5800481117426877e-01
    3.9855384106976888e+00 -3.5091181301576635e-01
    3.2255336891033113e+00 -4.5909822604992340e-01
    2.7636640436047499e+00 -5.8414555938894386e-01
    2.5061212210827257e+00 -7.2495421010686889e-01
    2.3728022936152451e+00 -8.7563927059873414e-01
    2.3191964338595943e+00 -1.0148029099084741e+00
    2.3096254095150335e+00 -1.1321685726224024e+00
    2.3091297569524634e+00 -1.2021883494219350e+00
    2.3156209254806486e+00 -1.2295375110901414e+00
    2.3134545967968343e+00 -1.2096977062098020e+00
    2.3040826394535481e+00 -1.1446098338285335e+00
    2.2977073667993531e+00 -1.0231255472837781e+00
    2.3473772945100539e+00 -8.6295358798529131e-01
    2.5233258071932654e+00 -6.9048024142832987e-01
    2.9015902103058213e+00 -5.3290132220149733e-01
    3.6020074141584897e+00 -3.9754744165744771e-01
    4.8258985705805326e+00 -2.8768128006504112e-01
    7.1423331935750323e+00 -1.9700702619488319e-01
    1.1967859180596893e+01 -1.2122894012373475e-01
    2.8232694452391648e+01 -5.6808611116772538e-02
    1.2309315998804624e+02 -1.5390667998292832e-02
    3.1512311940197498e+02 -5.0254929763461640e-03
    8.6915034227213312e+01 -1.7320519236473687e-02
    3.3353518918426836e+01 -4.3080539345626098e-02
    1.6501665069210755e+01 -8.5248897298831686e-02
    9.4878918596255062e+00 -1.3945836938888370e-01
    6.3388288157438160e+00 -2.1088330837912489e-01
    4.5489207782483518e+00 -3.0001797847660905e-01
    3.5089835075906186e+00 -4.0728152778461418e-01
    2.8955066536535083e+00 -5.3288848207907169e-01
    2.5483504278885358e+00 -6.8062942828912154e-01
    2.3779352949715311e+00 -8.4198850653767099e-01
    2.3094731416557623e+00 -9.8243825962476616e-01
    2.2950475427098693e+00 -1.0749410261392018e+00
    2.2897015071404887e+00 -1.1079807311493859e+00
    2.2934425646888057e+00 -1.1065909925445747e+00
    2.3014178424824854e+00 -1.1041449293100105e+00
    2.3021769544932984e+00 -1.1080246860400558e+00
    2.2968944306998953e+00 -1.1002043340650480e+00
    2.2893812422312445e+00 -1.0437866747052380e+00
    2.3139661012166353e+00 -9.1297850863583752e-01
    2.4379019491961684e+00 -7.3919131686119588e-01
    2.7526088689138888e+00 -5.7100550688195340e-01
    3.3962279264341801e+00 -4.2367100326525065e-01
    4.6485867214316325e+00 -2.9819620790274953e-01
    7.0153496296266971e+00 -1.9768613611613886e-01
    1.1806251728899330e+01 -1.2068381593648728e-01
    2.8559096790374753e+01 -5.3935628705774091e-02
    1.2669209539206287e+02 -1.3505543386742688e-02
    3.0944315317963407e+02 -5.9057126134358260e-03
    6.7738656622238466e+01 -2.1109667985968885e-02
    2.6390164853037579e+01 -5.2989037094956837e-02
    1.3804376771270224e+01 -9.3078492706036020e-02
    8.6264638559462412e+00 -1.5039873435817505e-01
    5.8816016172546597e+00 -2.2619102416253942e-01
    4.2265450319020417e+00 -3.2364534136116913e-01
    3.2674701841764309e+00 -4.4213121885917056e-01
    2.7235951492800199e+00 -5.8424747952851686e-01
    2.4429431754282676e+00 -7.4857559583901401e-01
    2.3184328847443116e+00 -9.0044933645904002e-01
    2.2880451790190088e+00 -9.9238771182055507e-01
    2.2903977291540158e+00 -9.9508845054647088e-01
    2.3159115826654175e+00 -9.4955660320436031e-01
    2.3400023309736979e+00 -9.0890463073946370e-01
    2.3448783848648453e+00 -9.1393597560628748e-01
    2.3324089905019623e+00 -9.5430484160568874e-01
    2.3068421463559310e+00 -1.0030879479951453e+00
    2.2944998827245033e+00 -9.9948655628514804e-01
    2.3186267704657251e+00 -9.0150861591533038e-01
    2.4383754485171605e+00 -7.3668151861396036e-01
    2.7460999213736166e+00 -5.6758942361502807e-01
    3.4069706817979601e+00 -4.2017190081767347e-01
    4.8071125317185377e+00 -2.9017459661998679e-01
    7.7632887031407938e+00 -1.8148235202313431e-01
    1.4099110746027900e+01 -1.0493977535211736e-01
    3.4218926242112786e+01 -4.7213173069471162e-02
    1.2770362755626950e+02 -1.4130865617149962e-02
    2.2080979481972778e+02 -5.7728051896635754e-03
    5.8551544860708745e+01 -2.2632277216942331e-02
    2.5743692712420348e+01 -5.2803174909811866e-02
    1.4040794545379780e+01 -9.2205807073873325e-02
    8.7664846399532319e+00 -1.4745170041602812e-01
    5.8682691958390016e+00 -2.2728458898662540e-01
    4.1271684665560304e+00 -3.3242831767066960e-01
    3.1726428200935208e+00 -4.6269615993779045e-01
    2.6434436699252171e+00 -6.1903352393203437e-01
    2.3980230386018517e+00 -7.8428268871882556e-01
    2.3107152781844200e+00 -9.0820988328758534e-01
    2.3020532537123550e+00 -9.3137298807958624e-01
    2.3616687536827730e+00 -8.6957693898804456e-01
    2.4501902006376532e+00 -7.9705953125158169e-01
    2.4767447444586304e+00 -7.7141210576080943e-01
    2.4242269432151642e+00 -8.0356009669907225e-01
    2.3741118908222560e+00 -8.7393930142504228e-01
    2.3236374730501517e+00 -9.5157541847179761e-01
    2.3084370459076480e+00 -9.6213107014847044e-01
    2.3368851413852503e+00 -8.6347326281157732e-01
    2.4890745322650929e+00 -7.0132424929878223e-01
    2.8361738959976552e+00 -5.3739656640440714e-01
    3.5527761731899536e+00 -3.9677102845564982e-01
    5.1237901210746575e+00 -2.7122264283119252e-01
    8.8311570423583614e+00 -1.5932446505431147e-01
    1.8016601970465089e+01 -8.1258409030663059e-02
    4.2475451263066198e+01 -3.6950867161005700e-02
    1.6162188860115646e+02 -1.1873399190853711e-02
    3.0321392328343035e+02 -7.0551739346642736e-03
    6.9327879968291768e+01 -2.0771176943315300e-02
    2.8599156427981907e+01 -4.7203562577549596e-02
    1.6332023143315467e+01 -8.2003836591592230e-02
    9.6134959453560249e+00 -1.3745728550563183e-01
    6.0102573986025112e+00 -2.2518195646666947e-01
    4.0843516560539026e+00 -3.3849238244600804e-01
    3.0899489891325302e+00 -4.8293499897158720e-01
    2.5794276110452685e+00 -6.4828822167773359e-01
    2.3678608283610170e+00 -8.0980531476936812e-01
    2.3141938318023891e+00 -8.9646046460446061e-01
    2.3433404321987799e+00 -8.7178559663557820e-01
    2.4505416852454323e+00 -7.8497609927864986e-01
    2.5469197646779538e+00 -7.3254174095443259e-01
    2.4813477754078130e+00 -7.4095056286507999e-01
    2.3946426915352417e+00 -8.0221047344472940e-01
    2.3621688028976315e+00 -9.0126281941490594e-01
    2.3196255433058850e+00 -9.7772293278124422e-01
    2.3094117449211740e+00 -9.5554794718715286e-01
    2.3627026813110632e+00 -8.2490290244962106e-01
    2.5756959169276556e+00 -6.5598783786068571e-01
    2.9964048381517889e+00 -4.9936418843997310e-01
    3.7189069616766792e+00 -3.6957331047588260e-01
    5.2390531077791911e+00 -2.5846440795255993e-01
    9.5672989990866988e+00 -1.4969571541660254e-01
    2.5777562248504001e+01 -6.1111356621783915e-02
    5.7373091915983444e+01 -2.8011568936962498e-02
    2.8492657215739843e+02 -9.1250996351920129e-03
    3.5594987641409557e+02 -5.3043513137468554e-03
    9.4791115927359712e+01 -1.6238399995902673e-02
    3.8327558212569656e+01 -3.6378614981226812e-02
    1.9899955434053297e+01 -6.8582010752963551e-02
    1.0583490008789630e+01 -1.2736849948820311e-01
    6.0022749242070725e+00 -2.2614336060038370e-01
    3.9429188777766218e+00 -3.5220290772844426e-01
    2.9703659427023865e+00 -5.0758351463884255e-01
    2.5120531810291049e+00 -6.7944964231380811e-01
    2.3400369882995657e+00 -8.2825105145513700e-01
    2.3152806380133186e+00 -8.8883003965305396e-01
    2.3570299628350395e+00 -8.4190091517470877e-01
    2.4523180750098583e+00 -7.6653453141818517e-01
    2.4745419852472459e+00 -7.7020475853643366e-01
    2.3415121077481293e+00 -8.2034372296827540e-01
    2.3006479016649179e+00 -9.1768349461627485e-01
    2.3215181931826061e+00 -1.0290959458622542e+00
    2.2951064685186098e+00 -1.0582790011233243e+00
    2.2922312798183810e+00 -9.6567404756517139e-01
    2.3969977575408943e+00 -7.9447676689302027e-01
    2.6843948212324853e+00 -6.1674936599250463e-01
    3.1327176368905603e+00 -4.7007288569919620e-01
    3.8146440475721257e+00 -3.5512441570711928e-01
    5.1233803565236054e+00 -2.5540754559716816e-01
    9.1333732885906187e+00 -1.5382451413879286e-01
    3.0176743919350308e+01 -5.2454282291703812e-02
    6.8736104119773330e+01 -2.1505865133579341e-02
    2.4886281089663652e+02 -9.9219815924551629e-03
    1.9519532896899645e+03 -4.0825169257547667e-03
    1.5278182212105168e+02 -1.0934385475086019e-02
    5.3124290381130734e+01 -2.5544797971133213e-02
    2.3963175940830791e+01 -5.7073081192190386e-02
    1.0894664373756868e+01 -1.2466202083886102e-01
    5.7190220435471195e+00 -2.3849817393128747e-01
    3.7247304971314525e+00 -3.7325889874453644e-01
    2.8570634271343360e+00 -5.3313607010242603e-01
    2.4649387283709516e+00 -7.0209414254697566e-01
    2.3294563044533056e+00 -8.3745005342666701e-01
    2.3162617421233631e+00 -8.8007425314282606e-01
    2.3541599869294054e+00 -8.4101427640859638e-01
    2.3976996357132512e+00 -8.1679096235082194e-01
    2.3455576036564376e+00 -8.9192404165129613e-01
    2.2405161665547344e+00 -9.7855056749435643e-01
    2.2848281990008465e+00 -1.1108034348264570e+00
    2.3193023652239093e+00 -1.1806299637403603e+00
    2.2737736985285615e+00 -1.1288577610345119e+00
    2.2859771540836697e+00 -9.7607041736638400e-01
    2.4356898638405293e+00 -7.7519539879466393e-01
    2.7447986339664068e+00 -5.9444660744996891e-01
    3.1590746832916117e+00 -4.6091023967254047e-01
    3.7814789520643957e+00 -3.5550054693543814e-01
    4.9257015514210067e+00 -2.6354918133304256e-01
    8.2208589242476027e+00 -1.6450368783159636e-01
    2.5954888077457770e+01 -5.9513032785963038e-02
    7.1809723124772660e+01 -2.3368667945240732e-02
    1.7375176839444867e+02 -7.4043238015330153e-03
    5.5276556182575848e+02 -4.0825169257547667e-03
    2.4691249127225689e+02 -7.9883454199429389e-03
    8.6134069842761278e+01 -1.8296453055643928e-02
    2.8082418945003692e+01 -5.1339434738376370e-02
    1.0759234825880586e+01 -1.2934639780528998e-01
    5.3166979990211676e+00 -2.5752139449892208e-01
    3.5308347249498726e+00 -3.9501133107809910e-01
    2.7788958855542472e+00 -5.5042172497057373e-01
    2.4456390322327417e+00 -7.0732309101379065e-01
    2.3309129818889831e+00 -8.2604982050292919e-01
    2.3276143696997282e+00 -8.6785315456393874e-01
    2.3528041492090299e+00 -8.6074372611799910e-01
    2.3564506975469435e+00 -9.0403568425773240e-01
    2.2859676784389427e+00 -1.0347035346571298e+00
    2.2422076618255358e+00 -1.1454361875382564e+00
    2.3283026161621181e+00 -1.2742078993414363e+00
    2.3215746332786940e+00 -1.2481935484502884e+00
    2.2691255498527179e+00 -1.1397750976187400e+00
    2.2957931461751087e+00 -9.6328345085513789e-01
    2.4457350592781810e+00 -7.6301131924236842e-01
    2.7139253507707810e+00 -5.9702704247599581e-01
    3.0907965633105148e+00 -4.7201999119145954e-01
    3.6782996426446153e+00 -3.6837041336524734e-01
    4.7685251138076854e+00 -2.7332531730663617e-01
    7.7275097775245278e+00 -1.7338663436106347e-01
    2.1431663193156854e+01 -6.8942720164739402e-02
    6.7976068223364109e+01 -2.4644657380557041e-02
    8.0352630096764460e+02 -6.9849019269755293e-03
    1.6587564066621760e+03 -4.7702800414168032e-03
    2.7628555281923161e+02 -4.1894280237942541e-03
    1.0543914156042786e+02 -1.8648256426065438e-02
    2.6868748417048771e+01 -5.3272123932593785e-02
    1.0056610295259727e+01 -1.4042051740819139e-01
    4.9056303882587207e+00 -2.7718062477915140e-01
    3.3920298880197790e+00 -4.1220900906901681e-01
    2.7586775502695384e+00 -5.5400340017988914e-01
    2.4700492270462737e+00 -6.9200544534485309e-01
    2.3574416684740833e+00 -7.9258314302255395e-01
    2.3494471930472263e+00 -8.4194083935003439e-01
    2.3534046381274121e+00 -8.6976698674166020e-01
    2.3271405763526309e+00 -9.5866435178155440e-01
    2.2645021592926078e+00 -1.0941026623517327e+00
    2.2643481010533932e+00 -1.2048945593454270e+00
    2.3324589356324146e+00 -1.2724254177800682e+00
    2.2899573648145002e+00 -1.1836340690530318e+00
    2.2643911272807853e+00 -1.0783524942057492e+00
    2.3214758116188281e+00 -9.2258453771877857e-01
    2.4481311437088400e+00 -7.5248127639028639e-01
    2.6679477326838810e+00 -6.0978718581715263e-01
    3.0089562499497662e+00 -4.8675394046402110e-01
    3.6000095403133292e+00 -3.8089677789549986e-01
    4.7658399627595980e+00 -2.7829889148674003e-01
    7.6781348424802269e+00 -1.7549155267349842e-01
    1.8194027952870897e+01 -7.7026142867230613e-02
    5.0970700973169819e+01 -2.9626304106761300e-02
    2.1444103433480433e+02 -9.1102402300022641e-03
    1.5615626688370928e+03 -4.0825169257547667e-03
    4.3118210866498373e+02 -6.7072773949266992e-03
    7.4103567040797373e+01 -2.1601432392398305e-02
    2.4849582084670089e+01 -6.0707692550739371e-02
    8.9577210510157030e+00 -1.5702241225085961e-01
    4.5844733595056848e+00 -2.9716316949982258e-01
    3.3078945953160570e+00 -4.2230679955157091e-01
    2.7862859655937635e+00 -5.4572670883740459e-01
    2.5345531891813025e+00 -6.5910029169170115e-01
    2.4268577521168866e+00 -7.4125055539316853e-01
    2.4016709244412526e+00 -7.8837956822291577e-01
    2.3774781804714529e+00 -8.3396729711932249e-01
    2.3181693652265993e+00 -9.1941340182165476e-01
    2.2581093867191364e+00 -1.0259556246832575e+00
    2.2637781374363977e+00 -1.1227755199202125e+00
    2.2914445737932567e+00 -1.1450631680222347e+00
    2.2738267121204796e+00 -1.0794597074728101e+00
    2.2925316038385004e+00 -9.9988631825843377e-01
    2.3499895118375496e+00 -8.7891758823830757e-01
    2.4512227250017862e+00 -7.4358354695923701e-01
    2.6336275973954510e+00 -6.1562164502372996e-01
    2.9908264110534786e+00 -4.9307976642021417e-01
    3.6241081455783544e+00 -3.7987428222747016e-01
    4.8968917167607033e+00 -2.7351765035083858e-01
    7.8803457154066576e+00 -1.7353912160656032e-01
    1.6651998712570645e+01 -8.4050148584957768e-02
    4.5490457495914207e+01 -3.4162442354077387e-02
    1.8533415106542139e+02 -8.9396475017993384e-03 1. 0.
    3.1272528069509980e+02 -8.9320884530738175e-03
    5.7722188781541384e+01 -2.5397763552538224e-02
    1.9766659214740706e+01 -7.3900175999987924e-02
    7.6197133271261928e+00 -1.7786004816348638e-01
    4.3139196946334328e+00 -3.1338343076992242e-01
    3.2703858159618995e+00 -4.2901306281978535e-01
    2.8322543736440142e+00 -5.3508893813496083e-01
    2.6182270867393669e+00 -6.2078198995980194e-01
    2.5150346894911983e+00 -6.8268924112787699e-01
    2.4702917048498105e+00 -7.2347014006379928e-01
    2.4179529110888551e+00 -7.6555898228681141e-01
    2.3484882223506967e+00 -8.2507042832445943e-01
    2.2995934391871122e+00 -9.1939023956809407e-01
    2.2784967857757339e+00 -1.0062601380037826e+00
    2.2814871178392950e+00 -1.0328150598231831e+00
    2.2960659036638327e+00 -1.0106726929154235e+00
    2.3213283244741656e+00 -9.5150930190270022e-01
    2.3550879384987486e+00 -8.5546569040277520e-01
    2.4434150552990870e+00 -7.4032107142160763e-01
    2.6358787565292001e+00 -6.1326579661208680e-01
    3.0316100828809454e+00 -4.8515629380565350e-01
    3.7626446035868213e+00 -3.6804197912277126e-01
    5.1811765341757416e+00 -2.6078182504371211e-01
    8.3242235766781221e+00 -1.6833375752181137e-01
    1.5937674453010477e+01 -8.8542637406523836e-02
    4.3629929251431058e+01 -3.5936234007029881e-02
    3.0745859936160235e+02 -1.0710812869814668e-02
    7.9264290382954835e+02 -5.9059667884066198e-03
    3.0466252237848397e+02 -6.3521141607904329e-03
    4.7072878041138345e+01 -3.3320214244283233e-02
    1.5316080507390778e+01 -9.1304863358325772e-02
    6.6617962943833726e+00 -1.9910803143977690e-01
    4.0960052775195699e+00 -3.2796741365280158e-01
    3.2065643376810495e+00 -4.3899542814059200e-01
    2.8285290962207679e+00 -5.3445409007988098e-01
    2.6514252731867503e+00 -6.0594789918596770e-01
    2.5479151004395426e+00 -6.5940509656342305e-01
    2.4802743245613934e+00 -6.9784836882395940e-01
    2.4320952188286302e+00 -7.3042289711392439e-01
    2.3963158369953845e+00 -7.8112567027452406e-01
    2.3365997654832360e+00 -8.7168855588320016e-01
    2.2936590400163581e+00 -9.5845445859848255e-01
    2.2982594127292231e+00 -1.0112466172079284e+00
    2.3140479275716292e+00 -1.0104488490174122e+00
    2.3138922655004164e+00 -9.5294508048441673e-01
    2.3390097793279789e+00 -8.5872464213485333e-01
    2.4369784609184322e+00 -7.3231139653859911e-01
    2.6754727095326194e+00 -5.9491059769969501e-01
    3.1294067910226357e+00 -4.6342915177180038e-01
    3.9445495520310541e+00 -3.4877114545342847e-01
    5.5085902005863181e+00 -2.4588474760444853e-01
    8.8099579978306579e+00 -1.5820093635281790e-01
    1.6777698363713807e+01 -8.5437963031161371e-02
    5.2277696344241953e+01 -3.1557961707876239e-02
    2.0428772867343619e+02 -9.7604141172027512e-03
    4.1641672487571304e+03 -4.0825169257547667e-03
    2.3612781711075036e+02 -1.1281662638917349e-02
    3.5408559718698022e+01 -3.9757101771674130e-02
    1.2957299696939886e+01 -1.0385233520642091e-01
    6.1964858147993693e+00 -2.1198097225213341e-01
    3.9594650444964721e+00 -3.3747788973590559e-01
    3.1271813601099603e+00 -4.5170193431740946e-01
    2.7617916321302518e+00 -5.5213161161170021e-01
    2.5842929066675864e+00 -6.3188647746150528e-01
    2.4802645880248617e+00 -6.9322439374912392e-01
    2.4176608056922126e+00 -7.3838490342499952e-01
    2.3783764450554807e+00 -7.7073076966790333e-01
    2.3490303082911219e+00 -8.2876952688509886e-01
    2.3116364742205167e+00 -9.1927271444367897e-01
    2.2877357705369965e+00 -1.0088061036688303e+00
    2.2962927703534590e+00 -1.0608282848796260e+00
    2.3055633661100563e+00 -1.0481237315772911e+00
    2.2953862067285660e+00 -9.6705521798398641e-01
    2.3392306315132405e+00 -8.4650228801890137e-01
    2.4875291139961457e+00 -7.0122275732413397e-01
    2.7878473255332268e+00 -5.5538565651689953e-01
    3.3310128770022769e+00 -4.2707460799875402e-01
    4.3033513665355905e+00 -3.1681048101811732e-01
    6.1459947839004654e+00 -2.2068580424468653e-01
    9.8816230148713426e+00 -1.4105726429159887e-01
    1.8655700071922737e+01 -7.8171042636145410e-02
    5.0726362610482980e+01 -2.9182578619715460e-02
    2.9949883377146671e+02 -8.0257859512416103e-03 1. 0.
    1.7274475915998426e+02 -1.0342104927080499e-02
    3.3237269496476486e+01 -4.3273622199041920e-02
    1.2341179937887706e+01 -1.0916701419569666e-01
    6.2613640936690826e+00 -2.0903257346693113e-01
    4.0691477585926403e+00 -3.3022464188369649e-01
    3.1277474562017642e+00 -4.5487526727414634e-01
    2.6981651335036378e+00 -5.6919680920874238e-01
    2.4916779890819090e+00 -6.7294360257836749e-01
    2.3897765853198467e+00 -7.6060122869494906e-01
    2.3376032043649415e+00 -8.2875749867192705e-01
    2.3094098733546939e+00 -8.8650819387043789e-01
    2.2931587187037685e+00 -9.5984040790998726e-01
    2.2848475852125874e+00 -1.0513839738978326e+00
    2.2875166188451828e+00 -1.1209048305462916e+00
    2.2928505979586640e+00 -1.1289434454891294e+00
    2.2923966853097815e+00 -1.0627393793992568e+00
    2.3074800485734488e+00 -9.3933290698519423e-01
    2.3936848519631009e+00 -7.8734756835251007e-01
    2.6109413868413118e+00 -6.2699095829156970e-01
    3.0390331936072981e+00 -4.8806277673095233e-01
    3.7717453270064931e+00 -3.6895114573691079e-01
    5.0386270820564043e+00 -2.6929222684699877e-01
    7.3023661237951742e+00 -1.8721262426800395e-01
    1.1428271378915754e+01 -1.2162743416079987e-01
    2.2633046192565740e+01 -6.6493819918405500e-02
    5.9439626894799801e+01 -2.6033003150953943e-02
    8.7457160875791180e+02 -5.7733159389513162e-03
    1.9519532896899645e+03 -4.0825169257547667e-03
    2.0097821386457520e+02 -1.0009503564535732e-02
    3.6333445668023472e+01 -4.0498731626959106e-02
    1.3862603433763448e+01 -9.9984708351078630e-02
    7.2357084414232782e+00 -1.8820172495416496e-01
    4.5209348496663777e+00 -2.9963131354587930e-01
    3.3206379128157311e+00 -4.2724847049622211e-01
    2.7455239673924332e+00 -5.5525136241948458e-01
    2.4686739450668247e+00 -6.8177739987301045e-01
    2.3426949046735590e+00 -8.0158751915885995e-01
    2.2944713474999623e+00 -9.0865684987425754e-01
    2.2878424154374488e+00 -1.0089452420447471e+00
    2.2955759265085596e+00 -1.1036228913658575e+00
    2.3106113088741012e+00 -1.1813322080156927e+00
    2.3057952754025552e+00 -1.1921856853912771e+00
    2.2980484211071177e+00 -1.1253050551749648e+00
    2.3053731812177567e+00 -9.9470796319709454e-01
    2.3720670298054869e+00 -8.3223274795177449e-01
    2.5546462043288165e+00 -6.6712599279544393e-01
    2.9231303420497383e+00 -5.2269449435178028e-01
    3.5635000634852583e+00 -3.9906542962413394e-01
    4.6428273522096921e+00 -2.9670064408779434e-01
    6.3701806670761432e+00 -2.1262622456584229e-01
    9.2275954809983389e+00 -1.4869395821728790e-01
    1.4508897402895309e+01 -9.6895728841391707e-02
    2.9263045878004082e+01 -5.0931089071961047e-02
    8.7293469201337828e+01 -2.0214429425303843e-02
    1.6016027333676827e+03 -4.0825169257547667e-03
    2.0149196406116675e+03 -4.0825169257547676e-03
    1.5572043077856297e+03 -6.0049057227948019e-03
    4.5942726236699890e+01 -3.3706347242927433e-02
    1.8509734930018020e+01 -7.8972450858446508e-02
    9.5511946810091679e+00 -1.4774137747773536e-01
    5.7193836820922845e+00 -2.4325025088460003e-01
    3.9284231374253080e+00 -3.6034629905507259e-01
    3.0523495303717452e+00 -4.8644317391314928e-01
    2.6031928890019969e+00 -6.2240998390928659e-01
    2.3820580368802329e+00 -7.5670417890365116e-01
    2.2865960298787700e+00 -8.8873651629216632e-01
    2.2595258215903029e+00 -1.0021705961184684e+00
    2.2676813246114129e+00 -1.0895925753510698e+00
    2.2740748483281883e+00 -1.1174380283506609e+00
    2.2724156883699842e+00 -1.0748398554738789e+00
    2.2911931165328139e+00 -9.6307263463876414e-01
    2.3773104761289381e+00 -8.1766817636238709e-01
    2.5690377547178307e+00 -6.6465591304478566e-01
    2.9451974012654514e+00 -5.2359508190457682e-01
    3.5692064629435833e+00 -4.0214203004097754e-01
    4.5720036484622586e+00 -3.0306916085785518e-01
    6.1702694261497379e+00 -2.2168084535953111e-01
    8.6299852982483980e+00 -1.5936593598315191e-01
    1.2613603522996451e+01 -1.1006069997814258e-01
    2.1385974089017630e+01 -7.0039765310377741e-02
    5.0072707896652531e+01 -3.7135622969980124e-02
    1.7446875323390933e+02 -1.2201409925660911e-02
    8.6753480686378691e+02 -4.0825169257547667e-03 1. 0. 1. 0.
    9.0364287961602884e+01 -2.2738726688603637e-02
    3.1606804277646912e+01 -5.1905397466875648e-02
    1.4715153146870287e+01 -9.9988024641741419e-02
    8.5647751210323548e+00 -1.6843162344781057e-01
    5.5173878059039252e+00 -2.6031072100529362e-01
    3.9393454269138735e+00 -3.6983708225796319e-01
    3.1044608743878799e+00 -4.9009799719239100e-01
    2.6645084982783320e+00 -6.1537068177771459e-01
    2.4387492096415366e+00 -7.3897799674054676e-01
    2.3362459534878677e+00 -8.4317590832245992e-01
    2.3067953676491069e+00 -9.0195141763074727e-01
    2.3138337282029231e+00 -8.9980608740497892e-01
    2.3637368685532509e+00 -8.3974858303552558e-01
    2.4785457180132680e+00 -7.3465553747717993e-01
    2.7125767315666223e+00 -6.1257571358669050e-01
    3.1218285421560279e+00 -4.9207119008839512e-01
    3.7996938912317675e+00 -3.7992816821790787e-01
    4.8326273042782271e+00 -2.8881739452323613e-01
    6.3854364769598693e+00 -2.1344093799804417e-01
    8.8669869107133010e+00 -1.5366778297330164e-01
    1.2619632853276977e+01 -1.0912600850246741e-01
    1.9248390570241277e+01 -7.4098756511331132e-02
    3.5589782125376395e+01 -4.3317185320121798e-02
    8.5094885527377215e+01 -1.9343792080923451e-02
    2.7583703406443715e+02 -1.0402481984734060e-02 1. 0. 1. 0. 1. 0.
    1.6655764615757803e+02 -1.0352700890498751e-02
    5.9994074933847870e+01 -2.8750102524065856e-02
    2.7003375540170516e+01 -5.7568373863846986e-02
    1.5182051158942553e+01 -9.5310537265846387e-02
    9.3189478652061020e+00 -1.5360976276349314e-01
    6.2309547067523656e+00 -2.2342452706933258e-01
    4.6003146079896382e+00 -3.0357777160973176e-01
    3.6585686458791615e+00 -3.8847997503342746e-01
    3.1467005272938047e+00 -4.7019583424592126e-01
    2.8897868890364111e+00 -5.3312356752001944e-01
    2.7991188735900057e+00 -5.6650599100434185e-01
    2.8160026559533500e+00 -5.6278365839423838e-01
    2.9584979336834598e+00 -5.2716469784496944e-01
    3.2482283585972671e+00 -4.6805739853350276e-01
    3.6779783775324946e+00 -3.9580504695925761e-01
    4.3342463742431860e+00 -3.2478944735782650e-01
    5.3825305523192180e+00 -2.5570503272368655e-01
    6.8782638998898085e+00 -1.9461171306904182e-01
    9.3112700649656173e+00 -1.4457420568795201e-01
    1.3020504802411075e+01 -1.0177354320002412e-01
    1.9147175508781199e+01 -7.1425222991494272e-02
    3.0486265340168710e+01 -4.7777757086526054e-02
    6.4497015077753005e+01 -2.5752435999282175e-02
    1.3080779972900260e+02 -1.1379423793926306e-02
    6.2688780062263675e+02 -4.7528749341798140e-03 1. 0. 1. 0. 1. 0.
    1.0847213087133043e+03 -6.6643011271786835e-03
    1.5721880005558535e+02 -1.0964213236813024e-02
    5.5086488023576301e+01 -2.7604451685625048e-02
    2.7705306946450186e+01 -5.1553601425717507e-02
    1.5743024153023145e+01 -8.6771846188993015e-02
    1.0293051935241124e+01 -1.2839203323658069e-01
    7.2960988449751776e+00 -1.7577589865098220e-01
    5.7870197642168240e+00 -2.2305443842966177e-01
    4.9024182121991906e+00 -2.6664028652916133e-01
    4.4971767442703481e+00 -2.9484431645459142e-01
    4.3322548406607746e+00 -3.0750543396580460e-01
    4.3780128970537122e+00 -3.0518012275382900e-01
    4.6657172510630858e+00 -2.8923178018649093e-01
    5.1147729585684223e+00 -2.6323129207069107e-01
    5.6771986005857658e+00 -2.3372359022899974e-01
    6.5795145791347958e+00 -2.0102782478387640e-01
    7.9934413549729015e+00 -1.6369105249752314e-01
    1.0295210628504439e+01 -1.2766599656024497e-01
    1.4166994665298915e+01 -9.3965139687798876e-02
    2.0292669136165173e+01 -6.5683259341041161e-02
    3.1602244940278954e+01 -4.5926531259964626e-02
    5.2377849853898759e+01 -2.8718809806365080e-02
    1.2798691546448659e+02 -1.5693036558388229e-02
    4.0575786632970085e+02 -5.6753061690289659e-03
    6.0060103964212067e+02 -4.0825169257547658e-03 1. 0. 1. 0. 1. 0. 1.
    0. 1.6437501695049459e+03 -4.0825169257547658e-03
    1.0877166104137086e+02 -1.5121393949717036e-02
    4.9049992613745033e+01 -3.1369554677313588e-02
    2.5264036432077848e+01 -5.3330235093993712e-02
    1.6845130997129960e+01 -7.9228267194858468e-02
    1.1932232824927320e+01 -1.0837665070136905e-01
    9.7295488013126779e+00 -1.3397906834398657e-01
    8.2812508102890874e+00 -1.5751318119558358e-01
    7.4665824969193100e+00 -1.7510551410246683e-01
    7.2259399750698483e+00 -1.8262689797873416e-01
    7.3549760793065140e+00 -1.8053534138236474e-01
    7.7763890446668418e+00 -1.6987649156736156e-01
    8.7749184574538699e+00 -1.5315731416993231e-01
    9.7697588468058694e+00 -1.3543312418421866e-01
    1.1460099152015596e+01 -1.1648029967275737e-01
    1.4083023156070727e+01 -9.3951254495821812e-02
    1.8349302005841515e+01 -7.2576887352189492e-02
    2.4714646487709242e+01 -5.2364359860292822e-02
    3.8916379061000157e+01 -3.6382999665505157e-02
    7.2851388649906184e+01 -2.1503063848340172e-02
    2.0535563144582238e+02 -1.3019279071624543e-02
    2.2181126274400849e+03 -4.4942151694836409e-03
    1.0586865875306848e+03 -4.0825169257547676e-03 1. 0. 1. 0. 1. 0. 1.
    0. 1. 0. 1. 0. 5.8282566922955721e+02 -5.7901636185117896e-03
    1.4815384042268099e+02 -9.0538459630506996e-03
    9.8031734479042356e+01 -1.6005443039450590e-02
    6.3234739408312400e+01 -2.2119760192230036e-02
    5.3391879867369703e+01 -2.6845995937598614e-02
    4.1276640363348562e+01 -3.1845063383270797e-02
    3.3200270050886715e+01 -4.3748408875714795e-02
    2.8042060901266538e+01 -4.7282947566080466e-02
    2.5762023480025256e+01 -5.3138804776655016e-02
    2.4444263035638215e+01 -5.6622819640951172e-02
    2.2362696334659461e+01 -6.0338355805842875e-02
    2.4245960803600116e+01 -5.6295001632962055e-02
    2.7133959988062209e+01 -5.1366537962549211e-02
    3.1646881451155753e+01 -4.2632279919398892e-02
    4.2201622222289785e+01 -3.3171027205153004e-02
    6.4456509031414527e+01 -2.2462883077193959e-02
    8.9794385126056980e+01 -1.6069087038247151e-02
    1.5117778664796199e+02 -1.1432202884208037e-02
    1.5194223226179110e+02 -9.0072945458071294e-03
    7.3572522314844582e+02 -5.7703939285430259e-03 1. 0. 1. 0. 1. 0. 1.
    0.</input_scale>
  <output_scale>
    5.2631578947368418e-01 4.9999999999999994e-01 5.2631578947368418e-01
    4.9999999999999994e-01 5.2631578947368418e-01 4.9999999999999994e-01
    5.2631578947368418e-01 4.9999999999999994e-01 5.2631578947368418e-01
    4.9999999999999994e-01 5.2631578947368418e-01 4.9999999999999994e-01
    5.2631578947368418e-01 4.9999999999999994e-01 5.2631578947368418e-01
    4.9999999999999994e-01 5.2631578947368418e-01 4.9999999999999994e-01
    5.2631578947368418e-01 4.9999999999999994e-01</output_scale>
  <inv_output_scale>
    1.8999999999999999e+00 -9.4999999999999996e-01
    1.8999999999999999e+00 -9.4999999999999996e-01
    1.8999999999999999e+00 -9.4999999999999996e-01
    1.8999999999999999e+00 -9.4999999999999996e-01
    1.8999999999999999e+00 -9.4999999999999996e-01
    1.8999999999999999e+00 -9.4999999999999996e-01
    1.8999999999999999e+00 -9.4999999999999996e-01
    1.8999999999999999e+00 -9.4999999999999996e-01
    1.8999999999999999e+00 -9.4999999999999996e-01
    1.8999999999999999e+00 -9.4999999999999996e-01</inv_output_scale>
  <weights>
    <_>
      -2.4205505044311306e-03 1.4350020023881954e-03
      6.4644512343053386e-04 4.8633238430626955e-04
      3.7031664159510754e-04 -1.6347347408353825e-03
      -1.2924630049669246e-03 1.7709373011530339e-03
      7.3201703133273985e-04 8.4176117600069666e-04
      -2.2103004689572893e-03 2.5701767177842448e-03
      -4.6055566270852285e-04 -1.2959532608692174e-03
      1.2146696274049592e-03 1.3501453984548978e-03
      1.2006486140541946e-03 -7.9047858364686484e-04
      5.2702745043081700e-04 1.4969797402949717e-03
      1.8790840525207588e-03 -8.0425485038962896e-05
      -2.1396785201270195e-03 3.8027502702400544e-04
      5.4070604485474824e-04 1.9483366631563347e-03
      -1.1016644708152256e-03 1.9584281285844650e-03
      1.8217483075673349e-03 3.5326222553837576e-04
      -2.4665188888353640e-04 -1.5093692338370161e-03
      2.4117844440002967e-03 -1.0806241320293882e-03
      -5.1099068755931939e-04 1.1185571773340256e-03
      2.2493344026269821e-03 -5.7268389394363574e-04
      1.0421095318872201e-03 -4.2355703764858566e-04
      -6.8650041093578490e-04 -5.9625754962180889e-04
      -2.3240753129875041e-03 2.4844909353482392e-03
      -4.5812788503573639e-04 -1.3234199368159457e-03
      -1.3117890958410138e-03 -1.2971892833947409e-03
      1.9286432407072259e-03 2.4776955337968321e-03
      4.4171985651576075e-04 -6.4402036669152440e-04
      -1.9063480179137810e-04 -6.2389818836504937e-05
      -1.3084339282737141e-03 1.2973360679489304e-03
      2.4794315242453327e-03 -1.6896887634146917e-04
      2.3502187914656940e-03 -1.0219549636833831e-03
      1.7979035016160393e-03 -2.3143435270049804e-03
      -6.7635147751573383e-04 1.7444478761288152e-03
      5.1696284291902759e-04 -1.1462587045603955e-03
      1.3271121066285687e-03 2.0349253709197814e-03
      -2.0789439996259971e-04 -2.6278472881858567e-03
      -6.2137547830144280e-04 -5.6314481290179158e-04
      -5.8884356465172384e-04 1.1347947913265721e-03
      1.8158400495619021e-03 1.2053427000363397e-03
      -3.3871773124435558e-04 1.5782343508407672e-03
      2.3643370250245712e-03 1.4576160908754509e-03
      1.2876331728093708e-03 -2.2223573664666742e-03
      -1.2420822153991372e-03 1.1362399353808165e-03
      1.7100964781361510e-03 -5.0338429278175907e-04
      -3.0546605958209138e-04 4.3034523465551626e-04
      -6.4746045629228421e-04 -1.6978176696383109e-03
      -8.7716089684717268e-04 1.3099967938766299e-03
      2.5309688048468135e-03 2.2139388332729913e-03
      1.2271952495767201e-03 -1.3760202161781077e-03
      2.2781054343213652e-03 1.1187243823972766e-03
      -5.9168778960385607e-04 9.0443563466739970e-05
      1.1737100848109752e-03 1.6946094836335348e-03
      1.4360221092004171e-03 1.5096901934200362e-03
      1.2055304274241829e-03 -2.3970962661184411e-03
      1.1189925039224962e-05 2.4339091520092721e-03
      6.8246957020225065e-04 -1.9466637872566574e-03
      1.9128338834277757e-03 1.1872493140987470e-03
      -1.6671804626521374e-03 -9.2280886061430151e-04
      -9.0378716211687784e-04 1.5028303414525847e-05
      1.5830882291244469e-03 -2.0735257460117373e-03
      -1.3935019467597616e-03 4.7332415432493305e-04
      2.0341573810042654e-03 1.5534700032835617e-04
      1.6897684656261975e-04 2.0980553297524130e-03
      -1.2725018011645519e-03 1.5074175020667185e-03
      -1.1927308437742850e-03 6.3270803180099126e-04
      -1.2804791524286005e-03 6.7518982672510366e-05
      2.2473935682637883e-03 2.5395760880831206e-03
      2.0356583424529263e-03 -1.6138746992204096e-03
      -1.3125068490776859e-03 -2.4967956905256933e-04
      9.9626523151477467e-04 -2.2087560357629669e-03
      -1.1333992639877570e-03 -2.4273224828371152e-04
      7.7630524580477305e-04 -1.1719426692489087e-03
      -2.1526167959436096e-03 6.9756280721370938e-04
      -1.7932330600998283e-03 2.2032823546913132e-03
      1.6967791950376206e-03 -4.6670675607554966e-04
      1.9657832172314212e-03 4.7572160320977859e-04
      2.4196172310331802e-05 -1.8023716354937927e-03
      -5.5313062079023116e-04 -7.7810070075995657e-04
      7.8924255296625189e-04 -1.8539894772010110e-03
      5.8732082178827090e-04 -1.4364542198512952e-05
      -3.7005197919411916e-04 -1.3051920236366695e-04
      5.1243703799553448e-04 -4.5621173344591185e-04
      -2.0872351248095214e-03 1.5649932360349626e-03
      3.6981424496011366e-04 7.2743027414240500e-04
      2.5460278507528199e-03 2.5365933194760764e-03
      2.5158350421405724e-03 -2.3615546120955722e-03
      -1.2583764613015537e-03 -1.6633140146560046e-03
      -1.8493254841341802e-03 1.9246471609057954e-03
      -1.5308133917483928e-03 8.5661101783838774e-04
      1.1633602907073620e-03 1.1636892052986827e-03
      2.3952945647002163e-03 -2.2650504756487467e-03
      2.5287807167435040e-03 -1.3288081774388873e-03
      -7.6078269073251144e-04 -2.3974205932407581e-03
      -6.1567097556772905e-04 -2.4550451659969101e-03
      -2.0194665297914079e-03 -4.5393484599494074e-04
      2.0670526686705610e-03 -1.4286995200401475e-03
      1.5193755833401176e-03 1.6001437509212948e-03
      -2.4637757559718390e-03 -1.7327611006138013e-03
      -3.2378306990859938e-04 1.6180144935055938e-04
      -1.2961637534946498e-03 -1.5411780484630919e-03
      -2.1537375971565132e-03 1.2317466357031616e-04
      1.5599706515948475e-03 1.1229033724529734e-03
      1.5818133332635399e-03 -1.9540008608226636e-03
      -2.2558202760087150e-03 1.9116751418444995e-03
      8.3133094378275629e-04 -2.2891370683491056e-03
      2.4031849968570462e-03 -1.3613195690988339e-04
      2.4622165196933540e-03 2.2469265872351492e-03
      2.4494425977865169e-03 -2.9295322001577306e-04
      1.6263391547587558e-03 -1.6648528357311662e-03
      1.8727763036764215e-03 1.8520790954860090e-03
      6.4534836527017534e-04 -1.7195487636912942e-03
      -4.6828258247767459e-04 -6.0614827423209833e-04
      4.4961056154226058e-04 -2.0485627850883813e-03
      2.2165655611570000e-03 -1.6492413479823576e-03
      1.4803770786422232e-04 -3.0716332438940645e-04
      1.2275297819493308e-03 -7.9261346353845356e-04
      -8.7650038045191661e-04 1.7467783934365863e-03
      2.1873663002375428e-03 1.7071729699708561e-03
      1.9790759716433563e-05 -1.6041026222094910e-03
      1.5395465515133505e-03 -2.2511662081614524e-05
      1.5536478704625903e-03 1.4058071744813801e-03
      1.2250369605975531e-04 5.7198692410962270e-05
      -2.0377801436181173e-03 -4.7540037857234395e-04
      2.5022676434635475e-03 3.3698534705258745e-04
      -4.5652052671102329e-04 -6.4871204061360674e-04
      -1.4368690111675427e-03 -1.8460580862454084e-03
      1.6788573759091644e-03 -2.3169259312089808e-05
      1.0241894484573474e-03 -5.2059452859064444e-04
      1.9369844312283346e-03 1.3613665550706595e-03
      -2.2164555538606943e-03 5.4420167816968225e-05
      -1.8052510358768502e-03 1.9240928100986337e-03
      -2.1490698847570181e-03 -2.4642684111729599e-04
      -8.7907366447753643e-04 4.6436471972906502e-04
      -1.1994013800273768e-06 -2.1401963432074326e-03
      -6.8970606255694563e-04 3.8017699352059709e-04
      -2.0592862362326545e-03 -2.5428084608797009e-03
      1.4869682197062102e-03 -1.3405091543033452e-03
      1.6968982477163824e-03 1.7704015934604858e-03
      6.4125698621222916e-04 -1.9799294755912370e-03
      -2.4456948771803062e-03 4.5459415416279625e-04
      1.2540231720655629e-03 -9.8573991260705852e-04
      -5.0831974461482338e-04 1.4804685750113480e-03
      1.4618755857651791e-03 5.2373276336358714e-04
      1.0008846415550826e-03 1.0255819283968911e-03
      5.8217573122884710e-04 -1.4314002514243861e-03
      2.4823145945763680e-03 1.3654473545955429e-03
      2.1318104993299112e-03 -2.0792807229852582e-03
      1.4158614666938980e-03 -1.4027274169071838e-03
      -2.2045368648913638e-03 1.4152284822082494e-03
      2.0776017304350481e-03 1.8025744156330470e-03
      9.9866222355474567e-04 -2.3696410317319218e-03
      -2.2997048297506593e-03 -4.1220031205319632e-04
      1.3155909968711251e-03 -1.8512591218222370e-03
      7.2309700106338800e-04 -6.7249481941697139e-04
      -9.3880677162632526e-04 5.4085995937998971e-06
      -1.2568627966251663e-03 2.3540797354095421e-03
      1.9258483297359360e-04 2.0414061453407719e-03
      -5.5441016609146411e-05 1.6725815764287602e-03
      -1.5141144667079401e-03 -8.0722320790434969e-04
      4.8796252411046546e-04 1.2086175359074178e-03
      1.2514949110977117e-03 3.7731660468528301e-04
      -1.6444973995184962e-03 -4.3799719571041755e-05
      -1.9234802182087976e-03 1.9955441270866278e-03
      7.8379081026646973e-04 -6.4226866380196466e-04
      -2.2320138745057973e-03 1.1573243959949119e-03
      -1.6460949203925604e-03 -2.0755162909711178e-03
      -1.2109553474629624e-03 -9.6223127535712103e-04
      -2.4556823726113244e-03 -2.0884822605287236e-03
      8.3647399913376011e-04 -1.1715070707087234e-03
      2.4278281631352622e-04 1.1581771796937818e-03
      -4.0330837013380296e-04 1.5824098313722309e-03
      -1.7101300713433915e-03 9.8356730709377085e-04
      1.6734374921022789e-03 -2.1473635452652425e-03
      -1.1191184655680651e-03 -2.3292075670681387e-04
      -3.0185425824921211e-04 -2.4501754057127340e-03
      1.5519678781633105e-03 1.7895093487173177e-03
      2.2824508221209183e-03 -6.9918115323958703e-04
      2.0545364196580111e-03 -2.3435375089882133e-03
      -1.8624521674573851e-03 -7.1530963808762377e-04
      1.1792094761575828e-03 1.1042226654290843e-04
      -2.2926958353979734e-03 1.0962807321928645e-03
      1.6831733648141063e-03 1.6013711343898489e-03
      -1.9381831863357066e-03 -2.3382058752455916e-03
      -3.0810437302436147e-04 -1.8981676633092390e-03
      -2.3042132699242283e-04 -2.0610169473894739e-03
      2.5842750669696794e-03 1.4309275739700636e-03
      1.5143113665246092e-03 9.0615531771475757e-04
      -1.3587519638244719e-03 2.4651313105914078e-03
      1.5240451687102117e-03 -2.4282771561775010e-03
      1.6318612250107445e-03 3.3842549473152013e-04
      3.0722036925785279e-04 -7.3227304338553559e-04
      2.0044199844071438e-03 -2.0345171809719943e-03
      2.3343011015022606e-03 1.1342255738478880e-03
      1.9480833401877196e-03 4.9223404527388764e-04
      -2.5238726703305072e-03 -1.3079980521101626e-03
      -2.4689822304553876e-03 2.2754617926418891e-03
      -1.0526081234787173e-03 -3.6487051617187715e-04
      7.4661993505201955e-04 8.8176955885737579e-05
      1.4204778018725263e-04 2.2194126952998438e-03
      -1.1465519056710516e-03 3.3471743796456343e-04
      -1.3690072539198063e-04 -1.5037947783071259e-03
      -1.2131881101341631e-03 -6.5869390660468262e-04
      2.5136147601643034e-03 6.3911516776470122e-04
      -6.0170081568829549e-04 -1.5975527086024247e-03
      -1.5081125850617896e-03 -1.2483711438428058e-03
      1.6958192197941697e-03 -1.6874047182942665e-03
      2.0406328032924535e-03 5.4109352823225913e-04
      2.3572418043326508e-03 -6.6461234673784175e-04
      -2.2344712809501109e-03 1.7370420343524328e-03
      -2.4953692649923817e-03 -2.1902626961608791e-03
      -1.9654842893343217e-03 1.1293036224160132e-03
      -8.5480809002626572e-04 7.9639741538591817e-04
      -1.9809337215259256e-03 -2.4630292053501096e-03
      1.2599241735902565e-03 8.3371238203419936e-06
      2.1592955624610472e-03 2.1999471951598660e-03
      1.1908400715213755e-03 -1.1157910434807460e-03
      -2.4904038560582875e-04 1.9828792170721488e-03
      -1.3476219811589117e-03 1.6144009070914120e-03
      4.8018778456202432e-04 2.3727915737910585e-03
      -2.1034541822378084e-03 -2.1415394661600902e-03
      -2.0942570282149673e-04 -1.2922274163676011e-04
      -9.7633837759629482e-04 1.0675545593480118e-03
      2.4247779846677262e-03 1.6104579019445920e-03
      1.0372634287889719e-03 -1.3263478651929445e-03
      4.8783615052579307e-04 -2.3871620269005785e-03
      -1.3476482375602335e-03 1.3548378242118010e-03
      -1.7252890213117569e-03 -9.4683011213765925e-04
      1.6393767554926939e-03 -1.6294771394427603e-03
      2.5219725353717230e-03 1.6091874831158180e-03
      1.7540571965168929e-03 -1.3138946119233880e-03
      -1.3818338026690637e-03 1.2919432192977096e-03
      5.2065326746362215e-04 -1.4259099601866515e-03
      1.4388457219316937e-03 2.1229797614214863e-03
      2.3265137146770715e-03 -9.4943249687301544e-04
      -2.2401223218766913e-03 -1.0299216535163650e-03
      -2.3407606355034072e-03 -1.5261092614926182e-03
      -2.3265652824038833e-03 4.7096330133939405e-04
      -2.2141228230922556e-03 -1.0368395841838908e-03
      -2.3902130000099330e-03 -6.7511542148368335e-04
      -1.2864807580300723e-03 -7.2476447770544576e-04
      -2.1492792608209699e-03 -1.8627811264475247e-04
      -2.3201687831470703e-03 1.1290287380168712e-03
      -1.8669768818578415e-03 2.2362722195235735e-03
      8.0332181871714059e-04 -2.6364440904096234e-04
      -1.0969783726154777e-03 -1.2612401614405214e-03
      -2.3146101162683252e-03 1.8099731669868398e-03
      2.3059498799041142e-04 -1.4460718159596216e-03
      -4.4575466122235706e-04 -9.1976276145972413e-04
      -3.3430557980620768e-04 1.3008530129872023e-03
      -6.2276622778126517e-04 9.5453722034921510e-04
      -2.1125038787852216e-03 -2.0708700987723499e-03
      1.3896253439127217e-03 -1.6220540185531104e-03
      -6.1094991801359757e-05 -2.4033101651940400e-03
      2.0200620487014569e-03 1.3401661262286558e-03
      1.7378402962273996e-03 1.2622001108558072e-03
      2.1219500594079161e-03 6.8735298374746859e-04
      -9.4233822913175277e-04 -1.5570917301707494e-03
      -1.5179642873671131e-03 -8.7803738569985153e-04
      4.3472526194037012e-04 5.6108848391255299e-04
      8.1344258797895409e-04 -3.0913411210118117e-04
      -1.3031592582726976e-03 8.9551951712634685e-04
      1.3912398855951233e-03 1.0562222524353839e-03
      -2.4191583006407012e-04 -1.3910501813282044e-03
      -1.1338867673053499e-03 8.0296326768569399e-04
      1.8205861206110248e-04 1.5261867539824105e-03
      -2.3428463568896710e-03 -1.2240567201625651e-03
      -9.6631872044087251e-04 2.6675942656919824e-04
      -8.5755558735715973e-04 2.1016492322200953e-03
      -1.2781205696404214e-03 3.2698463444199926e-04
      -5.4219878123946041e-04 -2.4234602196634945e-03
      -1.5195794717596999e-04 -1.1159745783324152e-04
      -1.2754761472135786e-03 1.8740413463363139e-03
      7.1723437773865557e-05 7.0681783326243908e-04
      6.2635235000914981e-05 -1.9164362505714274e-03
      1.7087481195290730e-03 -2.1696413633305617e-03
      -2.9219060401943685e-04 1.1382689203266938e-03
      -1.1539536179386771e-03 -2.0406751141909523e-03
      2.6531530683694866e-04 -1.8971258327623304e-03
      -7.3802756998401673e-04 -5.6600145153860144e-06
      -2.3373421163277400e-03 6.1385090351922774e-04
      -2.1614650108792610e-03 1.7154924714512978e-03
      -3.2312846534339213e-04 2.1057069694721407e-03
      -3.7232250150414617e-04 1.8566350946428575e-03
      2.2811978958039861e-03 -1.0426359743104729e-03
      1.0763833965110746e-03 -2.4059253182243359e-03
      1.9347237773982432e-04 2.3471026210998363e-03
      5.9245486328478314e-04 -1.2721968826263702e-03
      -1.4765407922161216e-03 4.7361676204731853e-04
      2.0528567978636831e-03 2.3960840416291378e-03
      1.8520543735109361e-03 1.4466576111475499e-03
      -1.0408105381045029e-03 -2.4429848070626158e-04
      2.1278611551909612e-03 1.1052344849717616e-03
      9.1089933745043311e-04 3.7423707290461141e-04
      1.0766520363299718e-03 -5.4924400659971080e-05
      1.4747365807939088e-03 -2.3342038998617810e-03
      9.3863755278867191e-04 2.0868864267757263e-03
      1.4353976223345937e-03 8.0670722930146273e-05
      -6.6601619693575488e-05 -1.1728615964104660e-03
      1.2641911193869706e-03 1.4600304651329560e-03
      2.4609058252736652e-03 1.2192572683549512e-03
      -1.4261947267697258e-03 6.6948891517977537e-04
      -1.4088055714047633e-03 2.1666629295697421e-03
      1.8462668773158160e-03 -1.5914993803691688e-03
      6.7238500974824689e-05 -1.0998054362592301e-03
      -1.1244515633596840e-03 2.2465617770209213e-03
      -1.3860609169086692e-03 8.8414290736526352e-04
      1.2418506404166746e-03 -1.6415465303808944e-03
      2.4166337702832010e-03 -2.1111835766581674e-03
      2.2585166705138405e-03 1.5041022026570572e-03
      -1.9402429626209854e-04 1.5635912823090561e-03
      1.0527846433361755e-03 -2.4169009030789610e-03
      -1.3854918430142484e-03 1.1361739990135213e-03
      -1.2725678100463907e-03 -2.2918120002442043e-04
      4.5706989180679627e-04 -1.2491618415399546e-03
      7.7696310751877891e-04 1.6452238744204136e-03
      -1.7248358245805401e-04 -2.0240745936171011e-03
      1.3772838039329447e-03 1.4563748305047501e-03
      -8.9460343635394412e-06 -8.8048899602689618e-04
      2.3318587350374203e-03 2.2810023990172744e-03
      -5.4024944613879249e-04 -1.8062263539025743e-03
      2.2589095719825567e-03 6.2317448038875340e-04
      2.0083151546723349e-03 1.8272778278342235e-03
      6.9828899729658671e-04 5.1735722337835604e-04
      5.1785538133258347e-04 -2.2195795021714851e-03
      -1.9206163588961576e-03 -2.3564656836951659e-03
      8.2126803989862628e-04 -4.2084850458190711e-04
      -2.3587344326903787e-03 9.1357249180923600e-04
      1.9292145995443890e-03 -2.1951551430501085e-03
      -8.6467205170623806e-04 2.0450267767225462e-03
      -1.1554535384737091e-03 1.8222234801288639e-04
      -1.0240729083307129e-03 -2.4259810056627643e-03
      1.2909672784429216e-03 -1.4727425877345641e-03
      9.8566882800872960e-04 -1.7897816937535529e-03
      -1.5935451973514072e-03 -1.0374744319149859e-04
      -2.0618520102469022e-03 6.5600387690814999e-04
      -1.9672737562515623e-04 2.1460499370567288e-03
      1.1049065731680995e-03 -1.1124302738558074e-03
      -2.4493817607904389e-03 -1.9128838029790416e-05
      1.5226777457462066e-03 4.8162380028477479e-04
      -2.2248485088827374e-03 -1.3337644822310629e-03
      -1.2570264942768554e-03 -1.3471148801908305e-03
      -1.9327819353228107e-03 -8.3674110324846740e-04
      1.6038869237644995e-03 -2.3718096809756768e-03
      -2.3197604221525925e-03 2.1373903023772325e-03
      1.7335641348217687e-03 -5.4834811514299929e-05
      1.8489978706990979e-03 -5.9709966640714032e-04
      -7.5408931194511839e-04 -2.6701187113072674e-04
      -1.6205887633824940e-03 2.0358579351147518e-05
      1.4710876347898301e-03 -4.0469844855370448e-04
      -1.2499106254333717e-03 -2.0022857787331330e-03
      -1.6101205454131292e-03 2.1193049414988722e-03
      -1.0145529383584655e-04 -4.9366862534875374e-04
      1.8996068578570392e-03 1.2751935717241465e-03
      2.8467446622635289e-04 7.1301419407129364e-06
      -1.9520772735413894e-03 9.6478133724800226e-04
      1.6748590481547787e-04 -1.8426482634378873e-03
      -2.5044088343399019e-03 2.1328752650343042e-03
      9.7940098225204691e-04 -1.1246740974158590e-03
      -1.2147735505715627e-04 -1.9877965366416608e-03
      8.3164271816482465e-04 2.0051486555808354e-04
      1.0971990663864980e-03 1.7896879019800433e-03
      -1.1643265276362258e-03 1.4704769451938369e-03
      5.5558269047500654e-05 1.6323857113135344e-03
      2.4622543811438904e-03 2.1903342252888904e-03
      1.7804830544741793e-03 -2.3797625596339120e-04
      -8.2481057183995520e-04 -2.0514012269355376e-03
      -2.4228625125908812e-03 -6.5185124875874608e-04
      7.4441134276044952e-04 3.9274501889417248e-04
      -5.9630297485111508e-06 -2.0094444388413569e-03
      1.2786259815994892e-03 1.8483514612749267e-03
      1.0924476856528156e-03 1.3703479507249977e-03
      -2.2618816221256842e-03 -2.3716226246977214e-03
      -1.9177022292146152e-03 9.0703075697015916e-04
      6.5955289830785821e-04 -2.1405205958201765e-03
      -7.2486270088028117e-04 -1.0917630964900787e-03
      -1.9541590888534077e-03 4.5156899081024321e-04
      5.4002040559780588e-04 2.2391480353225472e-03
      -1.6010439034394876e-03 -1.1174760230132437e-03
      -1.4513431825391224e-03 -1.6545687068442430e-03
      1.1090023763992985e-04 2.1829173709937335e-03
      -1.2808192632084585e-05 2.1697119832870169e-03
      -7.6337168974958383e-04 2.2633557524947543e-03
      4.0524618451984639e-05 5.4523635759113750e-05
      1.4157782376254793e-03 -1.9231674831963266e-03
      -1.8932437268725808e-03 1.5073124817033645e-03
      3.6812169756457173e-02 -1.9724691376462107e+00
      -4.5073848262710291e-02 -2.9500002375624146e-01
      4.9734264991621813e-02 -5.6214516569063330e-02
      3.4662538752526739e-01 2.4728223060058674e-01
      -2.8953573453085899e+00 2.0733145549133972e-01
      -3.7905987361029216e-02 -1.3675655187126870e-02
      -2.6035387036377446e-02 4.8966972048104157e-02
      -3.7368563092064461e-02 -3.9284888623325875e-01
      -2.5104001773269141e-01 5.8916848613944410e-02
      3.7218231026427689e-01 -7.0336543891911463e-01
      1.6835510615949029e-02 1.1025457511271242e+00
      4.4426702912003770e-02 3.2707977522537873e-02
      -3.4327507078751127e-03 -3.3711397932923465e-02
      1.0602868345710198e-01 -1.5647058579427456e-02
      -3.0054787770805828e-02 1.9858614123586646e-01
      4.1645874937297378e-01 -6.9391300122710373e-02
      -1.7877268979859777e+00 1.4586295972157909e-02
      -2.5471321757275390e-02 4.4794210748431212e-01
      5.5823400106064414e-01 -1.4012071274376614e+00
      -9.4672718359308503e-02 3.8312999059066183e-02
      1.2057018018201300e-01 3.8369137155869724e-02
      8.1515928651862565e-02 7.0556355076623445e-02
      1.1451039031594732e-02 -5.1075597345426056e-02
      -1.6636093399956683e-01 -1.7512116878248687e-01
      1.8375838348179534e+00 1.7402044595339744e-01
      4.1903374506878616e-02 -1.8874190014401776e-01
      1.2721528532857046e-01 -7.4638976806753327e-04
      1.3291275975457717e-01 -2.5094856317666553e-01
      4.0241362800746923e-02 5.8556003219204664e-02
      -9.0670398387211748e-02 -2.0926953185308184e-02
      -6.4782702780401269e-01 1.0684979496002340e+00
      -1.6241915385318502e+00 -1.1315446063562418e-01
      4.8697800820601968e-02 -2.3606781827747247e+00
      -5.5428933450992805e-02 -4.1147046767293299e-01
      4.3453374882540939e-02 -7.5243218658102823e-02
      2.2753942786579107e-01 1.9632803524641021e-01
      -2.2511616256778928e+00 1.4660632416287961e-01
      -4.9811907090633809e-02 -1.7566946115380365e-02
      7.3154626159608063e-02 6.3206177318465423e-02
      -4.8575207477987138e-02 -2.8224297438684226e-01
      -7.4287620130571685e-01 1.4618626972999529e-02
      3.0863935787277558e-01 -5.2286058278532832e-01
      1.9369522728686864e-02 6.8906517993872973e-01
      -6.1351732401563164e-01 4.2800727842675676e-02
      -2.3723265699163317e-03 -3.7025306834602123e-01
      3.8027839199626529e-01 -2.1065765097447672e-02
      -3.7010496818420002e-02 1.5396014848320403e+00
      2.4154292106066713e+00 -8.7631508772702996e-02
      4.8899419792888192e+00 2.3272579285109202e-02
      -3.0901013311350197e-02 2.0627230227480692e-01
      1.9717941815367401e+00 -1.0845461360089093e+00
      -1.6732458247753865e-01 8.7405903472396615e-02
      3.7595655976140946e-01 -1.3966973562444952e-02
      4.4774765463589372e-01 7.2138225222271313e-02
      1.2634206677861208e-02 -6.6634614541367002e-02
      -1.5242084387478705e-01 -7.0905183931512716e-01
      1.3799619262820284e+00 1.0315195384134814e+00
      5.3533642953333224e-02 -5.8476984749502725e-01
      9.3673733112377297e-02 1.0585289052760842e-02
      9.9970126012048088e-01 -1.7288349082117443e-01
      8.6807871394570576e-03 -4.1065076935105305e-02
      -7.3359360896890227e-02 -2.9132281051099156e-02
      -4.8475675061989026e-01 7.7624887693015170e+00
      -1.2196183972404494e+01 -1.3493815960642774e+00
      3.4466472348205900e-02 -1.4653424824179342e+00
      -3.4317995828965130e-02 -3.1664807854095667e-01
      1.0521164842927887e-02 -5.3762467118628546e-02
      -6.7432418074830927e-02 1.3807940426541562e-02
      -5.9557982954036186e-02 -2.5718796459798573e-02
      -3.5154860423964845e-02 -1.3736724488105463e-02
      1.5426655730909705e-01 4.4705743772685325e-02
      -3.1078788366099300e-02 3.2146444725945807e-02
      -9.4812774449566295e-01 -5.6497570081150840e-02
      4.6200842206694473e-02 2.0603715221658665e-02
      1.3831601356623775e-02 -2.6559570002600286e-01
      -1.1180374014555778e+00 2.9069064640934370e-02
      1.5121025368905216e-03 -5.9032595909687202e-01
      5.1634617087611245e-01 -1.6266813775478121e-02
      -1.7887030531799162e-02 2.3796476702262770e+00
      3.6006537515637751e+00 -6.2531859368661930e-02
      1.0744629391304819e+01 1.3799233224564734e-02
      -2.0275391515630733e-02 -2.3421133080015905e-01
      2.6539952781740155e+00 -1.7146008727890884e-02
      -1.6002566202177892e-01 1.0360825244639429e-01
      4.8293000522659418e-01 -7.7049953050387712e-02
      6.6348003008862622e-01 3.5245286804547804e-02
      3.7188151558934443e-03 -4.5598606830033910e-02
      -4.3906489761931899e-02 -9.8568419236035421e-01
      -4.3335893661923801e-02 1.5483046567799992e+00
      3.7098376698782368e-02 -7.5835033270950791e-01
      -4.4180015807144847e-03 1.8328894461678666e-02
      1.5435129258828073e+00 3.7611586599251241e-02
      -3.6371187067786900e-02 -1.5449030985253448e-01
      -4.6487002215479995e-04 -1.9227690512617152e-02
      2.1051713447048634e-02 1.1927353122929045e+01
      -1.8816770815212426e+01 -2.1714245534630954e+00
      3.3849777247429526e-02 -1.4663189449536409e+00
      -3.4065002517361498e-02 -3.1416042873493155e-01
      1.4667992731180081e-02 -5.2657352255725362e-02
      -6.8561241324369318e-02 1.1645670320116890e-02
      -5.7301232645647550e-02 -2.5477133159794548e-02
      -3.3037316752099019e-02 -1.3114257398860728e-02
      1.5594365643632591e-01 4.1875373731347670e-02
      -3.1143423076174528e-02 3.5039464181362140e-02
      -9.4620088787558654e-01 -5.3132823148393259e-02
      4.5812713231517546e-02 2.1506712796500474e-02
      1.3207844593637625e-02 -2.6685741622045678e-01
      -1.1149889362839449e+00 2.8905171287429709e-02
      2.6464245102647034e-03 -5.8745315692224054e-01
      5.1882817955307270e-01 -1.4481765651491799e-02
      -1.9185865600024211e-02 2.3783447438929168e+00
      3.6027764370360260e+00 -6.0460832669504437e-02
      1.0744265789708107e+01 1.3906538753679079e-02
      -2.1272841296568434e-02 -2.3137199428564015e-01
      2.6531584887990829e+00 -1.7564989251154343e-02
      -1.5984409280005851e-01 9.9931215291130471e-02
      4.8455123645419546e-01 -7.2830870225083014e-02
      6.6055249197352095e-01 3.1082359312976711e-02
      2.1213413951646858e-03 -4.7251778779255384e-02
      -4.5090627140958309e-02 -9.8359922368584718e-01
      -4.2196798618210539e-02 1.5512299209554707e+00
      3.6861640632449941e-02 -7.5798687049606628e-01
      -5.4475012954246036e-03 1.8929459350111935e-02
      1.5459228941092522e+00 3.8369981280827983e-02
      -3.6948876547563972e-02 -1.4978699903892106e-01
      -2.9996035814915094e-03 -2.1587524074166937e-02
      2.2863762171122036e-02 1.1927730536195936e+01
      -1.8817851015928799e+01 -2.1683721526506514e+00
      -1.4251225798383059e-03 -1.5890473498686717e-03
      -8.0762309645902435e-05 -1.3598342427780033e-03
      -2.3329599160474835e-04 2.1944935225832502e-03
      -3.1341928430198013e-04 -2.1922263295850375e-03
      9.7071599040508046e-04 -6.0095353360470230e-04
      -1.0077192213966163e-03 -1.6419727606589401e-03
      5.0062523016231519e-04 -7.9409760698395627e-04
      2.3268245151482894e-03 -2.0468511316547454e-03
      9.2268684687723699e-04 -1.4314526758790267e-03
      -8.4419261471443789e-04 -1.1969432282164984e-03
      1.8446382604288426e-03 2.3847812536233358e-03
      5.5158385214071565e-04 -2.0539159806931984e-03
      -2.2647566972810321e-03 -1.2628191512540651e-03
      1.1407262941905308e-03 2.1487395153413848e-03
      -4.7508851702659301e-04 1.2692018152679002e-03
      -2.4660597771764283e-03 -2.0416373966926577e-03
      2.2137754427938965e-03 1.3502825186573373e-03
      1.4719360545103945e-03 -2.3465435388210190e-03
      -1.5276287578448759e-03 -2.5793101753537207e-03
      -5.1924723391230166e-04 1.5539785870332219e-03
      -2.4201102895537148e-03 1.7466410681558149e-03
      6.3910461728594321e-04 -1.3580609603487308e-03
      4.2472001109238287e-05 1.8645721533267363e-04
      8.4512351475353009e-04 1.1142599147828771e-03
      -1.3356634894867308e-03 -3.6212014051385967e-04
      -2.2966934939481890e-03 1.9719099116868076e-03
      2.2489214812416091e-03 -9.8434573254274800e-04
      -2.3646822055203901e-03 -5.0097484966022668e-04
      4.6597902949478708e-04 -1.0127771509833752e-03
      -1.4790635154697787e-03 -3.6178672657465933e-04
      -1.1247278916798088e-03 2.1313179137396844e-03
      -1.4050098584243489e-04 -1.9379884581442455e-03
      -7.5506563896843071e-05 1.4521507289266069e-03
      1.8574904917527992e-04 -1.0509141955589495e-03
      -9.3023880985647160e-04 -2.0139141162951579e-03
      -1.4626053733747875e-03 1.7804692234739154e-03
      -1.0704200659513896e-03 -9.8626957586166815e-04
      -1.7319874843055476e-03 7.8345758797214839e-04
      5.5136955996922411e-04 1.3119419476491814e-03
      9.5378771390859142e-04 -1.1917524974114041e-03
      1.9075631831270469e-03 2.1677159175003814e-03
      -1.7479292680582246e-03 2.3388175365901915e-03
      -1.4414672328941158e-03 2.4868870447708391e-03
      -3.6368173046095998e-04 -2.1650288096681865e-03
      3.6176008094722134e-04 -1.9873334752539616e-03
      -2.5534401780306368e-03 -1.2356369717150067e-03
      1.5754160199984268e-03 2.0326737549197061e-04
      2.0704191576747257e-03 2.4541206103737821e-03
      -1.1129360633313013e-04 -2.5815101940882126e-04
      9.7799013941220810e-04 -2.1934174091139975e-03
      -1.5716432145992126e-04 2.4343539637844123e-03
      -5.6925812267788402e-04 -1.1063926488086289e-03
      -1.0589620961131262e-03 9.3560769119807239e-04
      2.0668680765194825e-03 1.5844745591952055e-03
      -5.6650202600989918e-04 -2.0296746044154049e-03
      -5.7459713064450134e-04 2.4229139811697362e-03
      -9.7908102784597805e-04 -1.4044535760038119e-03
      5.3885818634431710e-05 7.3332943086578219e-04
      1.2987625377323380e-03 9.4696911404761541e-04
      1.6466375797577881e-03 1.5725843182727206e-03
      1.2627209731022745e-03 3.6626579495774872e-04
      -4.5439681165526278e-04 -7.5170349193030416e-04
      -1.4771357314612963e-03 6.4382074620160520e-04
      2.0053240151096312e-03 1.6367624519122281e-03
      -1.1418663523841770e-03 -2.1339647616595503e-04
      1.2701827318841003e-03 2.4734774443696617e-03
      -1.8911428880156952e-03 2.4099490304432180e-03
      3.2248439323025722e-04 1.6721258845070407e-03
      7.2651704104675219e-05 5.5528402105477269e-04
      9.2241838286681154e-04 1.7547111551820601e-03
      -2.2266706500697299e-03 -1.6430416118774060e-03
      1.8033468382288182e-04 -2.0843847442644564e-04
      -9.1860680700187210e-04 -8.6621657482981054e-04
      -8.1895492432965339e-04 -2.2049529798704726e-03
      1.3352612924400760e-03 1.6325020633279231e-04
      -2.1770229739273995e-03 7.9891202548756045e-05
      -8.9293859437049197e-04 1.4952653041044913e-03
      8.3427153992725767e-04 1.8048090245484278e-03
      -1.1093135314631240e-03 2.2661017572407974e-03
      4.3245556051478025e-05 1.3295472811210040e-03
      -2.1025999124509821e-03 1.3876304967442748e-03
      -8.6437040254888707e-04 1.7546767166741284e-03
      -1.0196611202178757e-05 2.0805180527656121e-03
      -2.1240051155563427e-03 -3.3889322781723561e-04
      -1.4053008882247222e-03 -1.0435218573196759e-03
      -2.8128867928078720e-04 -1.2365144982238170e-03
      1.4608490312668320e-03 1.1721918355638080e-03
      -1.2737935530180628e-03 -3.2290518144118354e-04
      -1.6484498155832970e-03 -1.3144913423770244e-03
      1.5797121248415252e-03 -1.4503311266870185e-03
      5.2101370597676118e-04 -1.0419710774156651e-03
      1.1597451503213055e-03 -3.2361234055518283e-04
      1.4039471577146864e-04 2.4231037317322575e-03
      1.5250651063357316e-03 -2.1825908859228189e-03
      1.5280757139704379e-03 3.0895857881113007e-04
      4.4671431167336937e-04 -1.2095978185163077e-03
      -8.2234402191242199e-04 9.3508217411096138e-04
      -1.4387910677909120e-03 -1.2009279951206134e-03
      -1.8911334307008200e-03 2.0295048130297708e-03
      9.1404616238633307e-04 1.3770455659699375e-03
      2.6179926835170675e-04 1.2516337206673930e-03
      -2.5572184268598773e-03 2.1316231274732147e-03
      -1.7691190938068861e-03 1.9249163083295308e-03
      -3.7769086036333431e-04 2.3876478479126348e-03
      -4.8083947152634650e-04 -1.0189572123142279e-03
      1.7052339082915119e-03 -4.5050015421954501e-04
      -6.6459658968212262e-04 -1.8413322417457757e-03
      1.2613944070667183e-03 1.2632941157503916e-03
      -1.4124936597683718e-03 -8.9613520698742562e-04
      6.0413164084492882e-04 -1.9650355648477170e-04
      1.0160829896719160e-03 -2.4070053431890530e-03
      -2.2609067757711314e-03 -2.0269498730159032e-03
      1.8859647255618035e-03 1.1267463584633795e-03
      -1.2858599667850638e-03 1.6713688677533758e-03
      3.4171742673265031e-04 -2.4029998431904323e-03
      -9.6049734375318785e-04 -4.2551140955347707e-04
      2.5046342990979512e-03 1.6783770778336414e-03
      7.8994315564491708e-04 1.6290273196520586e-03
      -2.0087882764055964e-03 -1.6401430563460352e-03
      1.2355150646093638e-03 4.1181915109193433e-04
      -2.9269735946615917e-04 1.1485697639086623e-03
      -2.0122025892170196e-03 -2.0728968631044220e-03
      -2.0750501169170626e-03 1.0093765158756996e-03
      -1.1585408728291031e-03 2.0012345201183990e-03
      2.0586124039562448e-03 2.9702260988817168e-05
      -4.5384694992691501e-04 2.0804423054707668e-03
      -2.2518118684319529e-03 -1.5908465223185165e-03
      9.1401783287513869e-04 -1.4087573613244853e-04
      1.5090325222826991e-03 -1.0333204742517255e-03
      -1.6503136715924442e-03 1.6689392836078175e-03
      -1.6068428522242240e-03 -2.4106649452935009e-03
      -1.2659648427497975e-03 2.0602601999719326e-03
      -1.9883357501018504e-03 2.0844527997869786e-04
      2.2036150030782064e-03 -8.8362695702547686e-04
      1.1331568693295968e-03 -1.2024805787642652e-03
      1.0833194799334566e-03 2.3382365655958935e-03
      5.1165398279661670e-04 2.3542631195958984e-04
      2.3471684311650824e-04 1.0413264733754625e-03
      -1.4899343009217678e-03 1.3227397469034699e-03
      6.0509600043753516e-04 9.6656919517429468e-06
      1.5921621588830086e-03 2.5547347639614116e-04
      -1.5550021444752222e-04 1.2054542845117944e-03
      -9.5831635969185363e-04 1.1488956588517230e-03
      2.4901501415812992e-03 1.9337027925947264e-04
      -6.2211053737503178e-04 -2.5236714721288082e-03
      -2.2322898162581911e-04 9.4709822541409186e-04
      9.7068561360191786e-04 -8.2865082951601274e-04
      -2.1667452359576053e-03 -1.5587387064370842e-03
      8.8465264090919658e-04 -1.0779697101927421e-03
      -7.2187597768393194e-04 -1.6054686257832599e-03
      2.0209090383750006e-03 1.8853689518509039e-04
      -1.0231516670711992e-03 1.7099728820990732e-04
      -2.0002840726444180e-03 6.4000171657261934e-04
      1.6399830076330049e-04 -5.4402086059057184e-05
      1.8729036417300723e-03 -2.6027525223577810e-03
      3.7576275984017785e-05 -1.9272865374942308e-03
      1.0271071783960557e-03 -2.0620039735158458e-03
      1.4352827284977528e-03 7.9867339495599159e-04
      1.3828610138805447e-03 9.5160144448181035e-04
      -1.3741298137122679e-03 2.1974773615297274e-03
      -1.5437401534611830e-03 2.2109606494683902e-03
      1.0666236360184025e-03 -1.4834960940666559e-03
      1.4363143055977426e-03 1.3923696595030850e-03
      4.6877913736210726e-04 4.2987526865400971e-04
      -5.3886662790430899e-04 1.6508688094830839e-03
      4.2290509296556537e-04 8.4493920053704504e-04
      -7.7011026929990319e-04 8.4793023112072542e-04
      -2.1772360858676012e-03 6.1051537726491652e-04
      -1.4661096866212086e-03 -1.7740472444217150e-03
      -2.2053593383104132e-03 4.7894187843006694e-06
      1.6287842876917858e-03 1.6767201311558789e-03
      -6.5083398163813002e-04 9.0189930509300160e-04
      3.1349633314703152e-04 9.3766422124337892e-04
      1.9752715812774760e-03 -2.8919609842576187e-04
      1.1444969838403085e-03 5.8926951014309922e-04
      7.3321607195635219e-04 -7.7716584845973781e-04
      -1.8495689427658146e-03 1.9628003863483862e-03
      -2.2787819399448408e-03 1.8283579425997869e-03
      -2.2907861150378442e-03 3.0530138880137912e-04
      1.8503379021893561e-03 -2.4562186549541413e-03
      -1.1838822604070571e-03 9.5077091792158453e-04
      9.8654176891203849e-04 1.0259398386727840e-04
      -1.8153435727086213e-03 2.4478749055700708e-03
      -1.3823167831109305e-03 -1.2153559146723012e-03
      7.2441251423405255e-05 1.3216966512445720e-03
      1.3055688292031963e-03 -2.2178552577706238e-03
      3.0672795884285610e-04 2.6158655507953726e-03
      -2.2682377218739133e-03 -1.4726316589922723e-03
      -3.8280797581297457e-04 -2.2449449417732141e-03
      1.4864426662689928e-03 1.3439731825773185e-03
      -1.1582459754766732e-03 3.8393387917287148e-04
      -1.6899318716928581e-03 1.3417908661796322e-03
      -7.3167802574093525e-04 -1.1646166407393720e-03
      -2.2398069979535857e-03 -1.0884989760433362e-04
      -1.7851812567111682e-03 1.3167277700927316e-04
      1.7826811152396786e-03 1.5485556607405765e-03
      1.9613091057322212e-03 2.0575610765562807e-03
      6.2398217017577487e-04 -2.5784920272894671e-03
      -1.4561855906251608e-03 2.8785345150918689e-04
      -1.9653804388095474e-03 1.4239450773204548e-03
      -2.2259288895171868e-03 -4.1476607599582894e-04
      1.7857352984811735e-03 -2.3822077352201928e-03
      -1.3739077347898034e-03 -2.1833072766807961e-03
      2.5360698871394497e-03 -2.6214417555936524e-04
      1.7594466465525838e-04 1.4184428793935281e-03
      2.5033700418833054e-03 5.9329730809928503e-04
      -2.4232909580813289e-03 -9.8526370778945786e-06
      -2.1130757823219371e-03 -4.3859206284531556e-04
      -1.5915189515687343e-03 -2.1656547386723467e-03
      -4.0622222601552424e-05 1.0904265135440220e-03
      2.7876444450934690e-04 2.3949124405510339e-03
      2.9406380654973358e-04 -6.0845565368443551e-04
      2.3618922761447897e-03 1.4279646005436757e-03
      -8.2118076216016183e-04 2.2251270640099652e-04
      -2.4457736441528977e-04 -1.3015018993245253e-03
      -2.3842745284145014e-03 -8.5660732088227256e-05
      -1.4368777506213487e-03 -4.2880709073151840e-04
      -9.3399347528132551e-04 -9.5815993299637817e-04
      -2.7702287203834527e-04 -1.3919522037444975e-03
      5.5981973741046844e-04 1.2592437520365339e-03
      3.9861550429308885e-04 1.4830090444329723e-03
      1.0275557454611762e-03 -2.0087718358453841e-03
      -2.4572510218307210e-03 -2.1701284509745988e-04
      -5.6554801757875781e-04 3.0908211060486996e-04
      -1.9499373599970932e-03 -6.7936107708332580e-04
      -1.8006463499556338e-03 6.4336688518092395e-05
      -5.3179262666446902e-04 -1.6266426424359427e-03
      6.1729614329622323e-04 1.1581170067967148e-04
      2.5165765818013154e-03 -6.3373754639896134e-04
      3.2612162699349615e-04 -3.9012586322864754e-04
      -1.3437678183324893e-04 2.1878492304061199e-03
      -1.9371646327445665e-03 3.6277857855588350e-04
      -4.9652650882623436e-04 -1.1853431627627970e-04
      -2.4682784084280348e-03 -1.2979249181039169e-03
      -1.3376216297522026e-03 1.8498776879161149e-04
      2.4354028840645105e-03 2.1067186359397150e-03
      1.3054257406991225e-03 1.3231202878931006e-04
      -3.5357687443542249e-04 4.8208500766831552e-04
      -5.0787452737550802e-04 -2.2377648498127542e-03
      7.8083042104011167e-04 -1.9976944284265932e-03
      1.9798782457698715e-03 -4.1815145963644296e-04
      1.0521405290128865e-03 -7.2106966735756056e-04
      -2.7237983307437007e-04 1.9284291844999255e-03
      -1.6665542322933890e-04 -1.6789117498151082e-03
      2.0113297671314765e-03 7.6614884610414608e-04
      -7.6667213445274064e-04 2.1592752835153587e-04
      2.0487599718050785e-03 2.1642768112344916e-03
      1.2583495522118112e-03 -9.5289112450592790e-04
      2.4396299104872269e-03 -1.8037646977883128e-03
      -2.1390324922971955e-03 -1.2044727959224576e-03
      1.2710011585058039e-03 8.4237466328999412e-04
      1.7445973596247601e-04 -2.2914435232510126e-03
      1.3792733268538481e-03 -1.3445701536480468e-03
      -9.9165080616318282e-04 -1.0252649791211695e-03
      -2.3252024881278404e-03 3.4541563010368967e-04
      -1.4547700193020041e-04 1.6475745464659454e-03
      1.7383685717860088e-03 8.3475800318834629e-04
      1.6955970035531466e-03 -1.9474320287039652e-03
      -2.3745644618927385e-03 -2.4045434905608045e-03
      2.0242958552051738e-03 -1.6535649944979173e-03
      2.2515769280976195e-03 -2.2821587819305614e-03
      1.4674907443746864e-03 9.6153850231216708e-04
      1.6441875043471353e-03 -2.2128687898473226e-04
      5.8294967992311437e-04 4.0146242211643230e-04
      1.2733482564120928e-03 1.5873314018848902e-03
      1.3779173977255417e-03 -3.4799572963562701e-04
      2.5060278671219750e-03 1.4638641198351458e-03
      8.1803235508839923e-04 9.3086133484131424e-04
      -1.8918569964522696e-03 -1.8756813898104558e-03
      2.4719649401662821e-04 6.9733476809816838e-04
      -4.1047907213923745e-04 -7.7661275895082849e-04
      7.0745268196984671e-04 6.0869023417614479e-04
      -2.2873373615675745e-03 2.1581972292815835e-03
      2.4508645993001669e-03 -1.6561113050128607e-03
      1.0035985829378333e-03 8.1703720706761292e-05
      -1.9176041416294367e-03 2.4585316438366363e-03
      4.9535751934656785e-05 -1.4539875971365838e-03
      1.9253610400030933e-03 6.9058112253687790e-04
      -1.9125537258740061e-03 9.9211302618200511e-04
      5.0801726227337309e-04 7.2705446151314626e-04
      8.7508685808397420e-05 -1.9480771778339525e-03
      2.4055644931465837e-03 -7.8185768977447620e-04
      4.7135845319667551e-04 3.8785625459655598e-04
      1.4578728426691133e-03 5.9453927828856260e-04
      -9.7930166634538655e-04 2.0496264771339230e-04
      -9.6093613638088588e-04 2.3627119997782059e-03
      -7.2994920446939175e-04 1.9234166037782354e-03
      2.2770156919210641e-03 -1.0632731374414178e-03
      -2.3970218737346138e-03 2.3389194980346492e-03
      -1.3004611533888174e-03 -5.0615525434609095e-04
      -2.1472955874481726e-03 4.4810974402181587e-04
      1.3030582680488023e-03 1.9583630290614541e-03
      -1.1619411946025831e-03 6.4554164547118119e-04
      1.1254067656120586e-03 -1.8163640154742985e-03
      -5.0456291278852918e-04 2.0526397677752537e-03
      1.6049210066932885e-03 1.3098506832661290e-03
      -2.0415496405611312e-03 -1.7803969982401475e-03
      7.4100406392412551e-04 -8.2437664626402215e-04
      8.9809220792818494e-04 1.3421245448896552e-03
      2.0637445173381057e-03 8.6229818494644353e-04
      2.4009120297708076e-03 -1.3588261717373826e-03
      4.0065156872828422e-04 2.4787694276847813e-03
      -1.3235607816222900e-04 -2.2231560780724474e-03
      -4.8421095320006532e-04 -9.9267481399862597e-05
      1.3552415830083515e-03 2.2426335121382254e-03
      1.2912352596488772e-03 -1.0599467800361381e-03
      -2.3027547573928843e-03 1.2979308167313786e-03
      -9.0086686450632588e-05 9.0316388948050023e-04
      1.7146425639824779e-03 2.4234828999597936e-03
      1.1276431603710751e-03 2.3542599003364625e-03
      -1.8224354407016428e-03 6.3793818966005340e-04
      -4.5483835231059790e-04 -1.7904393972247516e-03
      -5.1237598861593296e-04 1.4103550723808958e-03
      -1.2520213837183367e-03 -1.7751366994576787e-03
      -2.1777072629169604e-03 5.3044867391029594e-04
      -8.0569770055013171e-05 -2.4864618801235527e-03
      -2.4096415390908671e-03 2.0347155842395936e-03
      2.2316468074166339e-03 5.7966250703999863e-04
      8.0860177014445249e-04 1.5622005288282092e-03
      -2.4989685705944947e-03 -4.7959911267635966e-04
      -2.1914352878136343e-03 5.5942917577900221e-04
      1.7078833080952560e-03 -9.2755444185413372e-04
      1.5664382345328355e-03 -8.5468095061152691e-04
      -1.7718096747289068e-04 -1.9103448134238695e-03
      -1.4799590041414486e-03 3.4537075391851389e-04
      1.1217946838101166e-03 1.2635789218211004e-03
      -3.7118098624049745e-04 -1.4607093728413768e-03
      1.4758739711562665e-03 -2.8300756117773384e-04
      -8.2780983069710495e-04 -2.3020143497481721e-03
      -3.0872666242507139e-05 -2.4026070994910786e-04
      -1.8270714466226208e-03 -1.2598472283047804e-03
      -5.9432311933060780e-04 -2.1617026237535203e-04
      5.1004646403261333e-04 1.2971085896814533e-03
      2.2483823218272911e-03 -3.8550050064924888e-04
      6.7809992690513461e-04 -2.2988698332137123e-03
      1.9452484249988032e-03 -3.8949923083069601e-06
      -2.1622974276891025e-03 -1.3152908377553464e-03
      -2.2196054261431532e-03 2.2362247884933641e-03
      -4.4455632555629094e-04 -1.6901745765478249e-04
      -1.8767305091337151e-03 -3.6114077437378127e-04
      -7.1707220335538681e-04 -8.7257375731498543e-04
      6.3658427540250987e-04 -1.9144402936929516e-03
      -1.6094908646691233e-03 -9.6525295792300458e-04
      2.2775023749482238e-03 -1.5378489689386874e-03
      1.0983302328566103e-03 7.7648579607019169e-04
      -2.0502875263660189e-03 -1.2727675234889843e-03
      -1.9562648023334138e-03 -9.3962858286022595e-05
      2.5482289794991942e-04 -1.5899541147416365e-05
      -1.4300228462995338e-04 1.8522368411822783e-03
      5.4393173534555495e-04 2.0413755657237337e-03
      2.2672750773670316e-03 1.7076674165813059e-03
      1.3797096721092735e-04 2.2773676786603295e-03
      -2.4246882534054966e-03 -1.5983198833681767e-03
      2.3103620254295854e-03 -8.8337914397778618e-04
      -4.4379399652727796e-04 -2.5904275908852806e-03
      -4.6954480804626349e-04 -3.2596705973121079e-04
      2.5105426972719474e-03 6.5560188796330636e-05
      -1.0185507633896260e-03 2.4886366159001562e-03
      -4.5490151453889024e-04 9.7867329636085101e-04
      1.9395028825553078e-03 2.3955841549328678e-03
      9.3269958725550014e-04 2.5645471031008065e-03
      1.6809372789824376e-03 2.8748914114326346e-04
      1.9531897644414517e-03 8.1509246201670409e-04
      -2.5430592039605089e-03 1.7423934204340284e-03
      1.3862703546509046e-03 9.7500176621165106e-04
      1.0027698700918260e-03 -6.7994559704048557e-04
      2.2409416188022271e-03 -1.5834604178905256e-03
      8.9974731467861119e-04 -1.3739726409083526e-05
      -8.3544142057065212e-04 8.9774725401720414e-04
      2.1265421915944147e-03 8.6861477209044114e-04
      -1.8893438167644804e-03 -1.7688557019557396e-03
      -1.9251123614667366e-03 1.9543852568165558e-03
      -1.2588641648999270e-03 2.1833229941085838e-03
      6.1114597723560494e-04 8.6629638332531855e-04
      -2.2013946077117817e-03 1.9168179459980185e-03
      2.2934112681996014e-03 3.4617952880662046e-04
      5.8179775795204302e-05 -1.9058318291120604e-03
      -2.0801126377768069e-03 1.7960451330998855e-04
      -3.0347213050494154e-04 1.3874539241138027e-03
      7.1408250814265794e-04 -1.2982595763843131e-03
      -1.4110598109178404e-03 1.7228979503908404e-03
      -2.3356234657282101e-03 5.4946580875963854e-04
      -1.7784535395562275e-03 -2.1022726521791298e-03
      -1.3147744023914327e-05 4.9558853099451516e-05
      1.9509086080484318e-03 -1.0161234535909045e-03
      -4.5874637402158042e-04 -1.8679201680198076e-03
      2.3046693640085586e-03 -1.6133776091862653e-03
      1.8531886030541545e-03 2.2441237391910267e-03
      1.9575793272894257e-03 1.1936592616355625e-03
      1.7292045332026158e-03 -1.3373843055019671e-03
      -1.0835617816808093e-03 9.9719466186924655e-04
      1.3049170294497704e-03 -1.8944373380843754e-04
      1.3453371848797001e-03 1.6668523155892474e-03
      -2.0013100923226158e-03 1.0104715836602859e-03
      -1.9549535419952470e-03 -1.2791272319069252e-03
      -1.4083477510861806e-03 -3.9919729350369797e-04
      3.8519675970390989e-04 -2.4711055439764046e-03
      -2.2742104499226296e-03 -1.9938547207857178e-03
      1.7880048587811993e-03 1.8127082099995682e-03
      -5.9325374795568206e-04 -1.2939437754492730e-03
      3.1725875963820483e-04 -2.2776892967856196e-04
      6.8789815982213507e-04 -2.0772184141089464e-03
      -1.8048372726238660e-04 6.5037984742106363e-04
      -1.6161239679988177e-03 1.2111791365565457e-03
      -5.7470172040545420e-04 2.4060450046367063e-03
      1.8323361640977809e-03 -2.2985147291212032e-04
      2.0016066995525907e-03 -4.6215584673108326e-04
      1.1071119469367285e-04 1.9483601142757589e-03
      -2.5766100724491339e-03 -1.1157349056881132e-03
      1.9046413532882865e-03 1.7216067636497254e-03
      2.3360098179398200e-03 3.1970703664174115e-04
      -1.6750459651997164e-03 -1.0424689746071358e-03
      -1.2022700332642883e-03 -1.9790836181747648e-03
      1.4944276221134708e-03 -1.4354356215456009e-03
      -7.8269469931407281e-04 -1.1833460148846296e-03
      2.4626618720659599e-03 -5.0326075103423909e-04
      -2.1355983436319743e-03 -4.6268756629154002e-05
      2.5985908243444373e-03 -1.4594410494733938e-03
      1.8472363957464640e-03 2.6364873979361725e-05
      -1.7613844164874798e-04 1.0771649984815720e-03
      7.8864344345441718e-04 -1.8844443419157946e-03
      -4.1358414891943482e-04 4.0535358845667028e-04
      2.0010345094221169e-04 -5.3874073635589088e-04
      -9.3397837979627236e-04 -2.1309216476788980e-03
      4.7989271460182638e-04 -7.5519107547346971e-04
      -4.7679046976309382e-04 -2.5206638311487360e-03
      -1.8048956249266802e-03 -3.5788816324989320e-04
      -1.4261101824983192e-03 -3.2186199158433531e-04
      1.3986964634286948e-03 2.3110838462156312e-03
      -2.8540797903124480e-04 -1.2614380158311777e-03
      1.6174433962397848e-03 1.9480201744087131e-03
      -2.2410506238388118e-03 2.3788936592639082e-03
      -4.0706635823380388e-04 1.4625742507677715e-03
      -2.2058142552644072e-03 -1.9338001148628823e-03
      -4.5413100938620441e-04 2.0516705744178625e-03
      -2.0139679901961922e-03 1.3722600374686814e-04
      1.2852951014435162e-03 -2.3867216082617995e-04
      1.0571142779363426e-03 2.4532350791749347e-04
      2.2289135559638794e-03 2.4251603315615824e-03
      2.5915431241493284e-04 8.6453206922066197e-04
      2.0797070601210393e-03 3.8229772567304539e-04
      2.4411819650279223e-03 -2.7221998849243832e-04
      -2.1045582925956247e-03 6.1290236337596253e-05
      1.3657038610298228e-03 2.2807226625943342e-03
      -2.1040409949779935e-04 -7.1452307338973244e-04
      1.8823009020732880e-03 -1.1696280567659138e-03
      1.7542300052941218e-03 -3.3123398159202915e-05
      1.6312224998523462e-03 2.3401019171575498e-03
      -2.1049809838225189e-03 -1.3843149704619625e-03
      -7.9721027097440060e-04 1.3449201182180600e-03
      -2.0735513814188833e-03 2.6180134743747359e-03
      1.4042345143389890e-03 2.4080179518188205e-03
      2.2461113169178716e-03 1.4835996106308050e-03
      4.6279342685534878e-04 -3.3676988723630005e-04
      1.0574467755980737e-03 8.2486307321568228e-05
      9.1649112455583436e-04 2.1926257487017878e-03
      1.5125818525157464e-03 -1.6692540118957797e-03
      1.2403621261023244e-03 1.2707615221039468e-04
      1.0625085725932287e-03 -2.0970464201543783e-03
      -1.6102025973157322e-04 2.2582377730560356e-03
      1.3346641921549269e-03 -2.1481487578598898e-03
      -3.4466190709328342e-04 -1.4372041758088569e-03
      1.2198402567852346e-03 -4.6740147303056518e-04
      1.4673070633667590e-03 9.4636073322019022e-04
      -1.5526363457527923e-03 -1.2597219311371943e-04
      -5.5855486060464316e-04 -7.6340694244359230e-05
      2.5651307298332126e-03 1.6332461154388064e-03
      1.3933530959494246e-03 2.1487810294368491e-04
      2.4395007264041415e-03 1.0083227505868987e-03
      1.0866993975280320e-03 -9.4568611333624322e-04
      8.6742186538582566e-04 -1.2731616041040559e-03
      -6.2080893567873462e-04 -9.6863703941395469e-04
      8.0870828225220110e-04 1.2714543205914685e-03
      -1.4767568051640519e-04 -9.8720537291832242e-04
      -6.3733168567790810e-04 1.0500045383394980e-03
      1.3150051117995988e-03 1.0648612881681316e-03
      -1.6979481330853328e-03 2.0475963328546376e-03
      -2.2518258514068090e-03 1.0647127356068532e-03
      1.9852351753113771e-03 1.8074243971112245e-03
      2.4301207606103525e-03 -2.4604705280465719e-03
      1.1000862758503344e-03 1.9269722174095056e-03
      -2.2590916956136104e-04 8.2417846027025665e-04
      -8.0137626827632565e-04 3.2619692883485983e-04
      -2.0003163525945280e-03 -8.7856067247579404e-04
      -2.2923315339726663e-03 2.2696820965224457e-03
      4.1445220129873527e-04 -1.3812075540032803e-03
      -1.1596080624959818e-03 4.2188753171901563e-04
      -4.6442626217688907e-04 -1.9767490169119105e-03
      8.7166080025191119e-04 2.3409624055072175e-03
      -1.0878030903741802e-03 -1.6261515090611534e-03
      2.3106966357777990e-03 -1.5312348534887435e-03
      1.5577223835917659e-03 1.2402848816311990e-03
      -2.5629611247890340e-03 5.5857836450195748e-04
      -1.9344341630834006e-03 -1.5387115677449265e-03
      6.4146339203151716e-04 -1.4750222452569882e-03
      -6.5739134297657922e-04 1.0772837563461789e-03
      -2.3994049841019839e-03 9.9880555377908288e-04
      6.9937782762510511e-04 -4.4235098180667686e-04
      -1.4807582432812948e-03 -8.1327302925341121e-04
      -8.5743692156425714e-04 2.4455351255263315e-03
      -6.2476690371071890e-04 -9.6015519394785449e-04
      -4.9795548374289439e-04 2.2753060457181666e-03
      -1.5937936737722266e-03 -1.9027901790851141e-04
      -2.1609967800823469e-03 3.1088001151806933e-05
      -1.9422024116302126e-03 1.4135803207936662e-03
      -1.1663424366815420e-03 -1.6943928071513671e-03
      -2.1301232316687790e-03 2.5881526316683216e-03
      -1.4964492299042226e-03 -2.2556058099437895e-03
      1.0255851767908403e-03 -1.6814761673363304e-03
      -1.1337765656816391e-04 -2.3655031569131714e-03
      -2.5530012646333409e-03 -1.8281041800182851e-03
      -7.5445046631177981e-04 -1.9624388904035863e-03
      -2.1764533065688318e-01 8.1313991228829069e-02
      -3.9347935797594540e-02 -3.4933921583383126e-02
      3.1030433801384382e-02 -5.4586986219535880e-02
      3.9358653246702971e-02 1.0744604117483436e-02
      -5.9564072183391291e-02 -2.3689097238294213e-02
      -3.6884072867663362e-02 -1.1512911471079404e-02
      -3.7704184239949021e-02 4.5584527633137514e-02
      -1.9411352124778486e-02 3.6696381654875050e+00
      4.6611262032191417e-02 -6.1372068664037008e-02
      8.8043377318081026e-02 -1.3293460741232331e-02
      -8.4860183497202257e+00 -6.3684103977693196e-01
      -8.3868761063924762e+00 3.1694950705817848e-02
      -2.0544563243903948e-03 1.7327553388911558e-02
      7.4634654556189950e-02 -1.6308301693431206e-02
      6.6140577494720826e-02 -3.8093292317159871e-01
      -1.2599237115797655e-02 -6.3631396919941408e-02
      -1.2594183162627460e-02 1.7434394198813236e-02
      -2.4768567624394767e-02 -1.0666527300720497e-02
      -5.1080434681632682e-03 -9.6059786641019152e-03
      3.3502461312505775e-02 4.0560495652260165e-02
      -1.9220005868064827e+00 4.4409592178954377e-02
      4.2106716834686794e-02 3.1767573209644261e-02
      3.7939111864961333e-03 -4.6083713412280326e-02
      -4.4030585977798686e-02 -1.1751242477495131e-02
      -3.9481728467435993e-02 -1.3700669618801062e-01
      3.7997599225827960e-02 -4.2880128087662138e-02
      -3.0608424234072629e-01 -4.1764476409061977e-03
      -1.1881565007382636e-02 -1.6312005866355693e-02
      -3.2822105698755627e-02 -4.9630344162776632e-02
      -4.3739538426533861e-04 -1.9611429485447991e-02
      2.5558829034540667e-02 4.5871727626273326e-02
      -6.4899617785162504e-03 7.5262102942712350e-02
      -2.0723145693052314e-01 8.4045443202071426e-02
      1.8553857463558313e-02 -4.2151704827598127e-02
      -6.1411070481370522e-01 -6.3436032388442753e-02
      4.6557490873997298e-02 1.2266452831958411e-02
      -7.8934423420729621e-02 -3.0553475942480448e-02
      -3.9271150320304725e-02 -1.5031178804820744e-02
      -3.6494870513194291e-02 5.1758307310569372e-02
      -4.0896567002313222e-01 3.6269702948412341e+00
      4.3576273780261812e-02 -1.7764593924422926e-02
      9.9322964887870929e-02 -1.1123435761853338e-02
      -8.3664623581078654e+00 -6.3752022339734127e-01
      -8.2583901543072287e+00 1.4350869102912533e-02
      -1.6083070381899668e-03 1.9965932975109110e-02
      -1.4007180215810808e+00 -1.8971457564903680e-02
      1.7529724661912636e-02 -3.7025600746872706e-01
      -1.6384572858775405e-02 -7.0703578580544019e-02
      -1.4617784589535160e-02 -3.9423535819301031e-01
      -2.7800732235345575e-02 -2.3867378592645882e-02
      -2.7104678489782749e-02 -8.9931177989175121e-03
      1.7999359559673932e-02 4.4193045173753248e-02
      -1.8930500978749458e+00 -1.9681227517359741e-02
      4.7414911715324783e-02 3.8113752749014490e-02
      4.7833217575962098e-03 -5.1568441986713939e-02
      9.4941279053536165e-02 -1.6166002888315410e-02
      -3.7205110010619186e-01 -1.3015528622145822e-01
      4.5666475797226491e-02 -5.2539445259986529e-02
      -3.0048490501673936e-01 -3.2158912807781995e-03
      -1.1709542742803834e-02 5.7335594172527227e-01
      -4.1776101357268565e-02 -5.9201991708776693e-02
      -9.1530100712115489e-04 -1.9733219304809528e-02
      3.0943888508932305e-02 5.4259042882576707e-02
      -1.0202725491126498e-02 8.5201593142679485e-02
      -1.9921232729260774e-01 1.0073037425933656e-01
      4.2872295105692437e-01 1.3892445975059703e-01
      -2.2851849853520130e+00 -1.1251611676766023e-01
      8.0959563945584997e-02 3.3794139237511164e-02
      -2.2507839699880705e-01 -5.2900946227426984e-02
      -7.3938559831633249e-02 -3.3494433971949655e-01
      -5.6801397072056725e-02 9.6256761074959174e-02
      -1.4396983447449043e+00 -4.4168645328129336e-01
      4.3960985335022096e-01 1.0590463331155633e-01
      1.2764037222948518e-01 -6.3094457766380740e-01
      2.8008852664091220e-02 -1.4208859319977840e-01
      -3.1788523584477696e-01 -1.0319607530379611e-02
      2.6698369230748344e-02 3.9899177865771240e-02
      -5.2244684769067122e+00 -3.4083981743545148e-02
      -7.5107097672819159e-02 -8.1112439986978202e-01
      -5.0928519167646270e-02 1.3750531534038207e-01
      -9.9188571998587466e-02 -1.4006382592698123e+00
      -4.9852377638307056e-02 8.9996611813872263e-01
      -2.2256754042048901e-01 -8.9526235180551833e-02
      -2.4282634649819193e-01 5.3092507439059267e-01
      9.4818054661830308e-03 -1.7213685423858208e-01
      -1.0206934378183997e+01 4.6447640542932528e-01
      7.8721436605551531e-02 3.7248653290189102e-02
      7.0133256240667385e-01 -6.5823120568619256e-03
      -1.2603299335345397e+00 -1.2866690737726108e-01
      1.6806852219481139e-01 -5.4098259298875262e-01
      8.2706693180390578e-01 -5.0380545113268416e-01
      -2.3052106668138728e-02 1.7620843282582479e+00
      -9.4047951413349887e-02 -1.3016323340337976e+00
      -3.0213993010174815e-03 -4.2181321828534513e-02
      4.5395691469691753e-02 -6.3845949898254584e-01
      -4.6271161160196146e-02 1.6662890832937668e-01
      -1.8321266865446090e-01 3.2886834363461837e-01
      1.5819496307220185e-01 -1.7135888181544310e+00
      -1.4227182040150221e+00 -1.2555951681951569e-01
      1.1031125305607502e-01 3.8884637897443300e-02
      1.2178821763612575e-01 -7.1659244710760503e-02
      -9.7489148127115760e-02 -2.9304631779256096e-01
      -9.3490278608642050e-02 1.2913398668155424e-01
      -9.3594509081585231e-01 -2.1511295643229653e-01
      4.8954999927190307e-01 -1.8617601425019888e-02
      2.1532404225506799e-01 -7.8206434914669076e-01
      8.0519971087561426e-02 -1.8473457883627012e-01
      -6.1892209178231572e-01 2.6272655347916708e-02
      4.8145279056639512e-02 2.4090738165309196e+00
      -3.2173784031762853e+00 1.9254308992826150e-01
      1.2628467707919716e-01 -1.2227127312095656e+00
      3.6820675852399729e+00 6.8395742257422981e-02
      1.5973051190173385e-01 -5.5422896255874321e-01
      -6.5601791574320986e-02 1.7861308484713116e+00
      -2.1661170576762012e-01 -8.5761503302127465e-02
      -3.2917799308809564e-01 7.3482787710491082e-01
      -1.0883582306490926e-01 7.9837646471042661e-02
      -8.2243282068558496e+00 8.4363539187787118e-01
      1.8375812543884804e-01 -5.7148785773053501e-01
      5.9423567532111765e-01 -2.0174206849888091e-02
      -8.7929262672610953e-01 -7.0007715442896523e-02
      3.1411087656020192e-01 -2.0476747550849170e-01
      1.5892543128097805e+00 -3.5269321306531737e-01
      -3.2066645366656508e-02 9.5615793041082320e-01
      -2.0974541303057062e-01 -1.5110782300155770e+00
      -4.5470971343808250e-03 -5.4762433368337041e-02
      7.0151049612438662e-02 -1.4745920426985040e+00
      -2.0674995695306769e-01 2.1382029488370682e-01
      7.4595033166921162e-02 2.0127493322813605e+00
